{"learner":{"attributes":{"scikit_learn":"{\"n_estimators\": 100, \"objective\": \"multi:softprob\", \"max_depth\": 5, \"learning_rate\": 0.1, \"verbosity\": null, \"booster\": null, \"tree_method\": null, \"gamma\": null, \"min_child_weight\": null, \"max_delta_step\": null, \"subsample\": null, \"colsample_bytree\": null, \"colsample_bylevel\": null, \"colsample_bynode\": null, \"reg_alpha\": null, \"reg_lambda\": null, \"scale_pos_weight\": null, \"base_score\": null, \"missing\": NaN, \"num_parallel_tree\": null, \"kwargs\": {}, \"random_state\": 42, \"n_jobs\": -1, \"monotone_constraints\": null, \"interaction_constraints\": null, \"importance_type\": \"gain\", \"gpu_id\": null, \"validate_parameters\": null, \"classes_\": [0, 1, 2], \"n_classes_\": 3, \"_le\": {\"classes_\": [0, 1, 2]}, \"_features_count\": 28, \"n_features_in_\": 28, \"type\": \"XGBClassifier\"}"},"gradient_booster":{"model":{"gbtree_model_param":{"num_trees":"300","size_leaf_vector":"0"},"tree_info":[0,1,2,0,1,2,0,1,2,0,1,2,0,1,2,0,1,2,0,1,2,0,1,2,0,1,2,0,1,2,0,1,2,0,1,2,0,1,2,0,1,2,0,1,2,0,1,2,0,1,2,0,1,2,0,1,2,0,1,2,0,1,2,0,1,2,0,1,2,0,1,2,0,1,2,0,1,2,0,1,2,0,1,2,0,1,2,0,1,2,0,1,2,0,1,2,0,1,2,0,1,2,0,1,2,0,1,2,0,1,2,0,1,2,0,1,2,0,1,2,0,1,2,0,1,2,0,1,2,0,1,2,0,1,2,0,1,2,0,1,2,0,1,2,0,1,2,0,1,2,0,1,2,0,1,2,0,1,2,0,1,2,0,1,2,0,1,2,0,1,2,0,1,2,0,1,2,0,1,2,0,1,2,0,1,2,0,1,2,0,1,2,0,1,2,0,1,2,0,1,2,0,1,2,0,1,2,0,1,2,0,1,2,0,1,2,0,1,2,0,1,2,0,1,2,0,1,2,0,1,2,0,1,2,0,1,2,0,1,2,0,1,2,0,1,2,0,1,2,0,1,2,0,1,2,0,1,2,0,1,2,0,1,2,0,1,2,0,1,2,0,1,2,0,1,2,0,1,2,0,1,2,0,1,2,0,1,2,0,1,2,0,1,2,0,1,2,0,1,2],"trees":[{"base_weights":[-6.519441E-1,-6.5250903E-1,-3.570058E-1,-6.470944E-1,-6.799117E-1,-4.1046283E-1,5.454545E-1,-6.4207125E-1,-6.709182E-1,-6.804362E-1,-2.8767127E-1,-4.8741424E-1,1.3043475E-1,8.571428E-1,-2.5544848E-8,-6.518232E-1,-6.1663055E-1,-6.650479E-1,-7.176929E-1,-6.807911E-1,-2.44898E-1,5.9999996E-1,-6.31579E-1,-2.0338988E-1,-6.579926E-1,4.897959E-1,-5.172414E-1,-6.372595E-1,-6.747434E-1,-5.866944E-1,-6.4095706E-1,-6.6680557E-1,-2.6086962E-1,-7.1979505E-1,-2.5544848E-8,-6.597992E-1,-6.901682E-1,-5.4545456E-1,2.3999998E-1,-5.639098E-1,7.35849E-1,-2.5544848E-8,-6.88716E-1,-1.2000003E-1,8.181818E-1],"default_left":[true,true,true,true,true,true,true,true,true,true,true,true,true,false,false,true,true,true,true,true,true,false,false,true,true,true,false,false,false,false,false,false,false,false,false,false,false,false,false,false,false,false,false,false,false],"id":0,"leaf_child_counts":[0,0,0,0,0,0,0,0,0,0,0,0,0,0,0,0,0,0,0,0,0,0,0,0,0,0,0,0,0,0,0,0,0,0,0,0,0,0,0,0,0,0,0,0,0],"left_children":[1,3,5,7,9,11,13,15,17,19,21,23,25,-1,-1,27,29,31,33,35,37,-1,-1,39,41,43,-1,-1,-1,-1,-1,-1,-1,-1,-1,-1,-1,-1,-1,-1,-1,-1,-1,-1,-1],"loss_changes":[4.6191406E0,3.8740234E0,3.0166135E0,2.475586E0,7.8686523E-1,2.3620806E0,6.233767E-1,4.5810547E0,6.781006E-1,5.703125E-1,2.855083E0,2.2186108E0,2.0377564E0,0E0,0E0,4.411133E0,3.6906738E0,2.4915771E0,6.8878174E-1,4.8242188E-1,9.243785E-1,0E0,0E0,7.0743685E0,6.042261E-1,1.188423E0,0E0,0E0,0E0,0E0,0E0,0E0,0E0,0E0,0E0,0E0,0E0,0E0,0E0,0E0,0E0,0E0,0E0,0E0,0E0],"parents":[2147483647,0,0,1,1,2,2,3,3,4,4,5,5,6,6,7,7,8,8,9,9,10,10,11,11,12,12,15,15,16,16,17,17,18,18,19,19,20,20,23,23,24,24,25,25],"right_children":[2,4,6,8,10,12,14,16,18,20,22,24,26,-1,-1,28,30,32,34,36,38,-1,-1,40,42,44,-1,-1,-1,-1,-1,-1,-1,-1,-1,-1,-1,-1,-1,-1,-1,-1,-1,-1,-1],"split_conditions":[9.01051E5,4.5E0,1.833E3,3.05E1,3.0885E3,7.5585E3,9.066985E5,1.55E1,3.1495E3,4.7845E3,3.4695E3,4.565E2,9.0911E5,8.571428E-2,-2.5544848E-9,6.5E0,1.95E1,3.124E3,4.7795E3,3.795E2,1.134E3,6E-2,-6.31579E-2,1.25E1,1.5E0,3.015E2,-5.1724143E-2,-6.372595E-2,-6.747434E-2,-5.8669444E-2,-6.4095706E-2,-6.668056E-2,-2.6086962E-2,-7.197951E-2,-2.5544848E-9,-6.597992E-2,-6.901682E-2,-5.454546E-2,2.3999998E-2,-5.6390982E-2,7.358491E-2,-2.5544848E-9,-6.88716E-2,-1.2000003E-2,8.1818186E-2],"split_indices":[3,12,0,11,7,2,3,11,25,0,24,0,3,0,0,11,11,25,0,7,8,0,0,18,9,0,0,0,0,0,0,0,0,0,0,0,0,0,0,0,0,0,0,0,0],"sum_hessian":[2.9122664E4,2.9065775E4,5.6888885E1,2.4290666E4,4.775111E3,5.4222218E1,2.6666665E0,2.0083998E4,4.2066665E3,4.7679995E3,7.1111107E0,4.7555553E1,6.666666E0,1.3333333E0,1.3333333E0,1.4500888E4,5.583111E3,3.7511108E3,4.5555554E2,4.763555E3,4.444444E0,1.7777777E0,5.333333E0,1.8666666E1,2.8888887E1,4.444444E0,2.222222E0,8.884444E3,5.6164443E3,2.5142222E3,3.0688887E3,3.734222E3,1.6888887E1,4.542222E2,1.3333333E0,1.4928888E3,3.2706665E3,2.6666665E0,1.7777777E0,1.3777777E1,4.8888884E0,1.3333333E0,2.7555553E1,1.7777777E0,2.6666665E0],"tree_param":{"num_deleted":"0","num_feature":"28","num_nodes":"45","size_leaf_vector":"0"}},{"base_weights":[1.1935306E-1,1.9143243E-1,-2.0384516E-1,6.0471106E-2,3.7987775E-1,-2.4651316E-1,3.24937E-1,4.026713E-1,1.8888796E-2,1.837691E-1,4.7539982E-1,-3.2157347E-1,-8.277651E-2,5.815699E-1,1.4596123E-1,1.2853466E-1,4.9632674E-1,-1.0633717E-1,9.515041E-2,5.115413E-1,1.3040316E-1,8.493736E-1,4.2680988E-1,-2.3784716E-1,-4.050208E-1,5.4229587E-2,-2.2439742E-1,1.255814E0,5.130111E-1,3.333333E-1,-2.0026708E-1,2.6092488E-1,-1.4310499E-1,5.8765873E-2,5.444166E-1,-4.169815E-2,-1.9922349E-1,-2.991077E-1,1.5378308E-1,6.241206E-1,1.8803415E-1,2.2288792E-1,-1.1981612E-2,9.5586777E-1,5.3589886E-1,5.428856E-1,2.812863E-1,-3.159616E-1,-8.213516E-2,-4.3956715E-1,-1.7181961E-1,6.593406E-1,2.9925143E-2,-3.0962104E-1,3.3352796E-2,1.3076923E0,4.285714E-1,5.792933E-1,-1.094891E-1,2.53903E-1,8.8757396E-1,-5.7446814E-1,-1.11831486E-1],"default_left":[true,true,true,false,false,true,true,false,false,false,false,true,true,true,true,true,true,true,true,true,true,true,true,false,true,false,true,true,true,true,true,false,false,false,false,false,false,false,false,false,false,false,false,false,false,false,false,false,false,false,false,false,false,false,false,false,false,false,false,false,false,false,false],"id":1,"leaf_child_counts":[0,0,0,0,0,0,0,0,0,0,0,0,0,0,0,0,0,0,0,0,0,0,0,0,0,0,0,0,0,0,0,0,0,0,0,0,0,0,0,0,0,0,0,0,0,0,0,0,0,0,0,0,0,0,0,0,0,0,0,0,0,0,0],"left_children":[1,3,5,7,9,11,13,15,17,19,21,23,25,27,29,31,33,35,37,39,41,43,45,47,49,51,53,55,57,59,61,-1,-1,-1,-1,-1,-1,-1,-1,-1,-1,-1,-1,-1,-1,-1,-1,-1,-1,-1,-1,-1,-1,-1,-1,-1,-1,-1,-1,-1,-1,-1,-1],"loss_changes":[6.785017E2,5.876701E2,1.1991228E2,1.9992758E2,1.828125E2,6.038208E1,1.814975E1,3.9021164E1,1.1966548E2,5.590145E1,1.18932495E2,2.3448212E1,3.001556E1,6.8802185E0,1.5326448E1,1.4026724E1,2.3836945E1,2.8467716E1,1.8006885E2,1.6186752E1,3.625533E1,2.465503E1,9.8023926E1,2.046389E1,1.3509979E1,1.1551319E1,1.6717003E1,5.4689407E-2,6.2296066E0,6.5102367E0,2.6898036E0,0E0,0E0,0E0,0E0,0E0,0E0,0E0,0E0,0E0,0E0,0E0,0E0,0E0,0E0,0E0,0E0,0E0,0E0,0E0,0E0,0E0,0E0,0E0,0E0,0E0,0E0,0E0,0E0,0E0,0E0,0E0,0E0],"parents":[2147483647,0,0,1,1,2,2,3,3,4,4,5,5,6,6,7,7,8,8,9,9,10,10,11,11,12,12,13,13,14,14,15,15,16,16,17,17,18,18,19,19,20,20,21,21,22,22,23,23,24,24,25,25,26,26,27,27,28,28,29,29,30,30],"right_children":[2,4,6,8,10,12,14,16,18,20,22,24,26,28,30,32,34,36,38,40,42,44,46,48,50,52,54,56,58,60,62,-1,-1,-1,-1,-1,-1,-1,-1,-1,-1,-1,-1,-1,-1,-1,-1,-1,-1,-1,-1,-1,-1,-1,-1,-1,-1,-1,-1,-1,-1,-1,-1],"split_conditions":[1.5E0,1.0535E3,1.5E0,3.05E1,3.05E1,1.7745E3,5.41979E5,2.45E1,3.15E1,2.95E1,3.25E1,9.5E2,1.016E3,2.8E1,2.95E1,1.5E0,3.5E1,4.5E0,3.6E1,7.49335E5,6.828675E5,6.813255E5,9.965E2,3.25E1,6.82746E5,2.55E1,1.5E0,5.03391E5,4.05E1,2.4655E3,1.945E2,2.6092488E-2,-1.4310499E-2,5.8765872E-3,5.444166E-2,-4.169815E-3,-1.992235E-2,-2.9910771E-2,1.53783085E-2,6.241206E-2,1.8803416E-2,2.2288792E-2,-1.1981613E-3,9.558678E-2,5.3589888E-2,5.4288562E-2,2.812863E-2,-3.159616E-2,-8.213516E-3,-4.3956716E-2,-1.718196E-2,6.593406E-2,2.9925143E-3,-3.0962104E-2,3.3352796E-3,1.3076924E-1,4.285714E-2,5.7929333E-2,-1.094891E-2,2.53903E-2,8.8757396E-2,-5.7446815E-2,-1.1183149E-2],"split_indices":[12,25,19,23,22,25,3,22,22,23,23,0,0,7,23,10,8,10,8,3,3,3,0,22,3,23,5,3,19,25,8,0,0,0,0,0,0,0,0,0,0,0,0,0,0,0,0,0,0,0,0,0,0,0,0,0,0,0,0,0,0,0,0],"sum_hessian":[2.9122664E4,2.3812443E4,5.3102217E3,1.4049777E4,9.762666E3,4.914222E3,3.9599997E2,1.5213333E3,1.2528443E4,3.1986665E3,6.5639995E3,3.3688887E3,1.5453333E3,1.6177777E2,2.3422221E2,3.8799997E2,1.1333333E3,4.7417773E3,7.786666E3,4.4666663E2,2.7519998E3,7.5288885E2,5.811111E3,1.6835554E3,1.6853333E3,7.857777E2,7.595555E2,1.3333332E1,1.4844444E2,1.5199998E2,8.222221E1,2.608889E2,1.2711111E2,1.12444435E2,1.02088885E3,2.7968887E3,1.9448888E3,1.0075555E3,6.779111E3,3.3066666E2,1.1599999E2,1.6679999E3,1.0839999E3,5.604444E2,1.9244443E2,3.2311108E3,2.5799998E3,1.1204443E3,5.631111E2,1.4671111E3,2.1822221E2,2.9333332E1,7.564444E2,5.706666E2,1.8888887E2,1.1999999E1,1.3333333E0,1.3422221E2,1.4222221E1,1.3422221E2,1.7777777E1,1.4666666E1,6.755555E1],"tree_param":{"num_deleted":"0","num_feature":"28","num_nodes":"63","size_leaf_vector":"0"}},{"base_weights":[5.3259087E-1,4.5477107E-1,8.8140416E-1,5.8015764E-1,2.7428216E-1,9.2291516E-1,3.6523926E-1,2.2859642E-1,6.228262E-1,4.6442336E-1,1.8156889E-1,9.9983513E-1,7.546885E-1,1.1467573E-1,5.3708076E-1,-1.0687904E-2,3.1517738E-1,9.427203E-1,5.9157395E-1,1.0052118E-1,5.23429E-1,-1.9322039E-1,2.3015156E-1,1.0576488E0,8.317745E-1,6.8897957E-1,1.0020683E0,-5.5813956E-1,1.7843862E-1,3.333333E-1,9.052069E-1,2.173324E-1,-1.6506195E-1,1.4487043E-1,4.7130597E-1,5.8235955E-1,1.0711671E0,7.446563E-1,4.8700818E-1,-4.45687E-8,3.8461536E-1,4.0865967E-1,6.3671404E-1,-2.823809E-1,6.735747E-2,1.2558797E-1,3.6576042E-1,9.0294623E-1,1.1034065E0,8.7407607E-1,-3.2171626E-2,2.6511624E-1,7.146982E-1,1.0202726E0,-2.44898E-1,-6.153847E-1,-2.5544848E-8,7.741931E-2,5.799256E-1,4.1659817E-1,-2.8402373E-1,9.671897E-1,-3.764504E-8],"default_left":[true,true,true,false,false,true,true,true,true,false,false,true,true,true,true,true,false,true,false,true,true,true,true,true,true,false,true,true,true,true,true,false,false,false,false,false,false,false,false,false,false,false,false,false,false,false,false,false,false,false,false,false,false,false,false,false,false,false,false,false,false,false,false],"id":2,"leaf_child_counts":[0,0,0,0,0,0,0,0,0,0,0,0,0,0,0,0,0,0,0,0,0,0,0,0,0,0,0,0,0,0,0,0,0,0,0,0,0,0,0,0,0,0,0,0,0,0,0,0,0,0,0,0,0,0,0,0,0,0,0,0,0,0,0],"left_children":[1,3,5,7,9,11,13,15,17,19,21,23,25,27,29,31,33,35,37,39,41,43,45,47,49,51,53,55,57,59,61,-1,-1,-1,-1,-1,-1,-1,-1,-1,-1,-1,-1,-1,-1,-1,-1,-1,-1,-1,-1,-1,-1,-1,-1,-1,-1,-1,-1,-1,-1,-1,-1],"loss_changes":[7.9014746E2,5.3876025E2,1.1346387E2,2.1062793E2,1.7203552E2,6.2848633E1,1.703212E1,3.154226E1,1.2470459E2,6.865149E1,1.19581726E2,3.1862793E1,2.4445374E1,7.0828657E0,1.734105E1,1.4307686E1,2.965615E1,5.091443E1,1.8239087E2,1.2784237E1,3.5533325E1,1.7534313E1,8.236835E1,1.6726807E1,3.1721863E1,1.316449E1,7.5668945E0,4.579606E-1,6.016261E0,7.983156E0,4.669365E0,0E0,0E0,0E0,0E0,0E0,0E0,0E0,0E0,0E0,0E0,0E0,0E0,0E0,0E0,0E0,0E0,0E0,0E0,0E0,0E0,0E0,0E0,0E0,0E0,0E0,0E0,0E0,0E0,0E0,0E0,0E0,0E0],"parents":[2147483647,0,0,1,1,2,2,3,3,4,4,5,5,6,6,7,7,8,8,9,9,10,10,11,11,12,12,13,13,14,14,15,15,16,16,17,17,18,18,19,19,20,20,21,21,22,22,23,23,24,24,25,25,26,26,27,27,28,28,29,29,30,30],"right_children":[2,4,6,8,10,12,14,16,18,20,22,24,26,28,30,32,34,36,38,40,42,44,46,48,50,52,54,56,58,60,62,-1,-1,-1,-1,-1,-1,-1,-1,-1,-1,-1,-1,-1,-1,-1,-1,-1,-1,-1,-1,-1,-1,-1,-1,-1,-1,-1,-1,-1,-1,-1,-1],"split_conditions":[1.5E0,1.0535E3,1.5E0,3.05E1,3.05E1,1.7745E3,5.41979E5,6.67177E5,3.45E1,2.95E1,3.25E1,6.78132E5,2.315E3,2.8E1,2.95E1,1.5E0,2.45E1,1.35E1,3.15E1,7.49335E5,6.523325E5,6.815435E5,1.0155E3,5.5E0,3.45E1,2.95E1,2.664E3,5.03391E5,2.5965E3,2.4655E3,2.0705E3,2.173324E-2,-1.6506195E-2,1.4487043E-2,4.7130596E-2,5.8235954E-2,1.07116714E-1,7.446563E-2,4.870082E-2,-4.45687E-9,3.8461536E-2,4.086597E-2,6.36714E-2,-2.8238092E-2,6.735747E-3,1.2558797E-2,3.6576044E-2,9.029462E-2,1.10340655E-1,8.740761E-2,-3.2171626E-3,2.6511624E-2,7.146982E-2,1.0202726E-1,-2.4489801E-2,-6.153847E-2,-2.5544848E-9,7.7419314E-3,5.799256E-2,4.1659817E-2,-2.8402373E-2,9.6718974E-2,-3.7645043E-9],"split_indices":[12,25,19,23,22,25,3,3,8,23,23,3,0,7,23,17,23,9,22,3,3,3,0,10,22,23,7,3,27,25,0,0,0,0,0,0,0,0,0,0,0,0,0,0,0,0,0,0,0,0,0,0,0,0,0,0,0,0,0,0,0,0,0],"sum_hessian":[2.9122664E4,2.3812443E4,5.3102217E3,1.4049777E4,9.762666E3,4.914222E3,3.9599997E2,1.5213333E3,1.2528443E4,3.1986665E3,6.5639995E3,3.3688887E3,1.5453333E3,1.6177777E2,2.3422221E2,4.0444443E2,1.1168888E3,1.1124443E3,1.1415999E4,4.4666663E2,2.7519998E3,7.5288885E2,5.811111E3,2.5026665E3,8.6622217E2,1.2239999E3,3.213333E2,1.3333332E1,1.4844444E2,1.5199998E2,8.222221E1,1.631111E2,2.4133331E2,5.351111E2,5.817778E2,2.9377777E2,8.186666E2,4.6306665E3,6.785333E3,3.3066666E2,1.1599999E2,1.3693333E3,1.3826666E3,5.6088885E2,1.9199998E2,3.282222E3,2.5288887E3,5.7599994E2,1.9266665E3,8.257777E2,4.0444443E1,7.0666664E1,1.1533333E3,3.1688885E2,4.444444E0,1.1999999E1,1.3333333E0,1.1955555E2,2.8888887E1,1.3422221E2,1.7777777E1,7.6888885E1,5.333333E0],"tree_param":{"num_deleted":"0","num_feature":"28","num_nodes":"63","size_leaf_vector":"0"}},{"base_weights":[-6.250356E-1,-6.25605E-1,-3.3100995E-1,-6.202666E-1,-6.526838E-1,-3.8450354E-1,5.4395604E-1,-6.151999E-1,-6.443251E-1,-6.532108E-1,-2.6627138E-1,-1.2451911E-1,-5.521421E-1,5.31715E-3,8.460326E-1,-6.250406E-1,-5.895631E-1,-6.3840187E-1,-6.916394E-1,-6.535672E-1,-2.2595683E-1,5.8651155E-1,-6.099081E-1,-3.9470628E-1,6.150282E-1,-6.3226336E-1,8.08915E-2,-6.10448E-1,-6.4804745E-1,-5.5950606E-1,-6.140422E-1,-6.4017415E-1,-2.3784134E-1,3.0080665E-2,-6.938216E-1,-6.3199526E-1,-6.632142E-1,2.561594E-1,-5.310001E-1,-6.0555714E-1,4.251227E-1,-4.279181E-1,9.745641E-1,-6.9694805E-1,-2.124785E-1,5.78192E-1,-4.612495E-1],"default_left":[true,true,true,true,true,true,true,true,true,true,true,true,true,false,false,true,true,true,true,true,true,false,false,true,true,true,true,false,false,false,false,false,false,false,false,false,false,false,false,false,false,false,false,false,false,false,false],"id":3,"leaf_child_counts":[0,0,0,0,0,0,0,0,0,0,0,0,0,0,0,0,0,0,0,0,0,0,0,0,0,0,0,0,0,0,0,0,0,0,0,0,0,0,0,0,0,0,0,0,0,0,0],"left_children":[1,3,5,7,9,11,13,15,17,19,21,23,25,-1,-1,27,29,31,33,35,37,-1,-1,39,41,43,45,-1,-1,-1,-1,-1,-1,-1,-1,-1,-1,-1,-1,-1,-1,-1,-1,-1,-1,-1,-1],"loss_changes":[4.5009766E0,3.6533203E0,2.852778E0,2.4638672E0,7.635498E-1,2.2766123E0,5.923779E-1,4.5273438E0,6.966553E-1,5.5200195E-1,2.6897798E0,4.7160974E0,1.6957722E0,0E0,0E0,4.3066406E0,3.6298828E0,2.4191895E0,7.136078E-1,5.3637695E-1,9.240869E-1,0E0,0E0,3.1971114E0,2.8098884E0,6.365566E-1,1.4878899E0,0E0,0E0,0E0,0E0,0E0,0E0,0E0,0E0,0E0,0E0,0E0,0E0,0E0,0E0,0E0,0E0,0E0,0E0,0E0,0E0],"parents":[2147483647,0,0,1,1,2,2,3,3,4,4,5,5,6,6,7,7,8,8,9,9,10,10,11,11,12,12,15,15,16,16,17,17,18,18,19,19,20,20,23,23,24,24,25,25,26,26],"right_children":[2,4,6,8,10,12,14,16,18,20,22,24,26,-1,-1,28,30,32,34,36,38,-1,-1,40,42,44,46,-1,-1,-1,-1,-1,-1,-1,-1,-1,-1,-1,-1,-1,-1,-1,-1,-1,-1,-1,-1],"split_conditions":[9.01051E5,4.5E0,1.833E3,3.05E1,3.0885E3,4.565E2,1.33605E4,1.55E1,3.1495E3,4.7845E3,3.4695E3,1.25E1,7.5585E3,5.3171505E-4,8.4603265E-2,6.5E0,1.95E1,3.124E3,1.8E1,3.795E2,1.25E1,5.8651157E-2,-6.099081E-2,9.06347E5,3.875E2,1.03E3,9.07061E5,-6.10448E-2,-6.480475E-2,-5.5950608E-2,-6.1404224E-2,-6.4017415E-2,-2.3784135E-2,3.0080664E-3,-6.938216E-2,-6.319953E-2,-6.6321425E-2,2.561594E-2,-5.310001E-2,-6.0555715E-2,4.251227E-2,-4.279181E-2,9.745641E-2,-6.969481E-2,-2.124785E-2,5.78192E-2,-4.612495E-2],"split_indices":[3,12,0,11,7,0,4,11,25,0,24,18,2,0,0,11,11,25,8,7,9,0,0,3,8,27,3,0,0,0,0,0,0,0,0,0,0,0,0,0,0,0,0,0,0,0,0],"sum_hessian":[2.8122559E4,2.8067076E4,5.5481586E1,2.3465062E4,4.6020137E3,5.2813248E1,2.668341E0,1.9404979E4,4.0600847E3,4.5950557E3,6.957964E0,2.1387283E1,3.1425962E1,1.3243922E0,1.3439488E0,1.4005597E4,5.399381E3,3.6212388E3,4.38846E2,4.5906973E3,4.358578E0,1.7954712E0,5.1624928E0,1.600594E1,5.381344E0,2.789641E1,3.529553E0,8.58679E3,5.4188066E3,2.4342788E3,2.965102E3,3.6046917E3,1.6547272E1,1.2843748E0,4.3756165E2,1.4391309E3,3.1515664E3,1.7511556E0,2.6074226E0,1.2939425E1,3.0665147E0,1.3307862E0,4.0505576E0,2.3599684E1,4.296726E0,1.8062241E0,1.7233288E0],"tree_param":{"num_deleted":"0","num_feature":"28","num_nodes":"47","size_leaf_vector":"0"}},{"base_weights":[1.1060553E-1,1.7615947E-1,-1.8937346E-1,5.5091746E-2,3.438634E-1,-2.2976825E-1,2.9734027E-1,3.6536032E-1,1.6759533E-2,1.6769668E-1,4.2858487E-1,-3.0124784E-1,-7.583395E-2,5.251116E-1,1.3525735E-1,1.770866E-1,4.8951644E-1,-1.2912408E-1,7.294682E-2,4.6262646E-1,1.1874027E-1,3.8061818E-1,7.276695E-1,-2.2010802E-1,-3.826815E-1,5.281659E-2,-2.1043836E-1,1.1121681E0,4.639057E-1,3.043825E-1,-1.8575831E-1,3.177572E-1,4.5689866E-2,5.5235732E-2,5.448624E-1,-4.3226168E-2,-2.2172388E-1,-2.576708E-1,1.19432114E-1,8.13321E-1,3.761935E-1,2.0103103E-1,-8.2065305E-3,4.849587E-1,2.4569017E-1,8.1522787E-1,3.8094136E-1,-2.9606766E-1,-7.001101E-2,-4.159921E-1,-1.5828997E-1,9.645962E-3,3.460537E-1,-2.9318383E-1,3.682675E-2,3.5943022E-1,1.1636239E0,5.243307E-1,-1.15018815E-1,6.446925E-1,1.835595E-1,1.3402478E-1,-2.8582212E-1],"default_left":[true,true,true,false,false,true,true,false,false,false,true,true,true,true,true,false,true,true,true,true,true,true,true,false,true,false,true,true,true,false,true,false,false,false,false,false,false,false,false,false,false,false,false,false,false,false,false,false,false,false,false,false,false,false,false,false,false,false,false,false,false,false,false],"id":4,"leaf_child_counts":[0,0,0,0,0,0,0,0,0,0,0,0,0,0,0,0,0,0,0,0,0,0,0,0,0,0,0,0,0,0,0,0,0,0,0,0,0,0,0,0,0,0,0,0,0,0,0,0,0,0,0,0,0,0,0,0,0,0,0,0,0,0,0],"left_children":[1,3,5,7,9,11,13,15,17,19,21,23,25,27,29,31,33,35,37,39,41,43,45,47,49,51,53,55,57,59,61,-1,-1,-1,-1,-1,-1,-1,-1,-1,-1,-1,-1,-1,-1,-1,-1,-1,-1,-1,-1,-1,-1,-1,-1,-1,-1,-1,-1,-1,-1,-1,-1],"loss_changes":[5.7556604E2,4.8765057E2,1.032711E2,1.6590726E2,1.5022058E2,5.3314804E1,1.4796009E1,3.5769104E1,1.01791275E2,4.718454E1,9.726282E1,2.1786621E1,2.665308E1,5.4874344E0,1.2903446E1,1.1281363E1,2.2173798E1,2.7456593E1,1.378155E2,1.3801788E1,2.932825E1,8.240076E1,2.8184784E1,1.8909363E1,1.2272156E1,9.965086E0,1.5397778E1,1.6504288E-1,5.4131737E0,6.2695065E0,2.6708446E0,0E0,0E0,0E0,0E0,0E0,0E0,0E0,0E0,0E0,0E0,0E0,0E0,0E0,0E0,0E0,0E0,0E0,0E0,0E0,0E0,0E0,0E0,0E0,0E0,0E0,0E0,0E0,0E0,0E0,0E0,0E0,0E0],"parents":[2147483647,0,0,1,1,2,2,3,3,4,4,5,5,6,6,7,7,8,8,9,9,10,10,11,11,12,12,13,13,14,14,15,15,16,16,17,17,18,18,19,19,20,20,21,21,22,22,23,23,24,24,25,25,26,26,27,27,28,28,29,29,30,30],"right_children":[2,4,6,8,10,12,14,16,18,20,22,24,26,28,30,32,34,36,38,40,42,44,46,48,50,52,54,56,58,60,62,-1,-1,-1,-1,-1,-1,-1,-1,-1,-1,-1,-1,-1,-1,-1,-1,-1,-1,-1,-1,-1,-1,-1,-1,-1,-1,-1,-1,-1,-1,-1,-1],"split_conditions":[1.5E0,1.0245E3,1.5E0,3.05E1,3.05E1,1.7745E3,5.41979E5,2.75E1,2.85E1,2.95E1,1.5E0,9.5E2,1.016E3,2.8E1,2.95E1,2.45E1,3.5E1,1.5E0,5.25E1,5.72472E5,6.828675E5,1.0135E3,7.018725E5,3.25E1,6.83626E5,3.95E1,1.5E0,3E0,4.05E1,2.35E1,1.94E2,3.177572E-2,4.5689866E-3,5.523573E-3,5.448624E-2,-4.322617E-3,-2.217239E-2,-2.5767079E-2,1.1943212E-2,8.13321E-2,3.761935E-2,2.0103103E-2,-8.2065305E-4,4.849587E-2,2.4569018E-2,8.1522785E-2,3.8094137E-2,-2.9606765E-2,-7.0011015E-3,-4.159921E-2,-1.5828997E-2,9.645962E-4,3.460537E-2,-2.9318383E-2,3.6826748E-3,3.5943024E-2,1.1636239E-1,5.243307E-2,-1.1501881E-2,6.446925E-2,1.835595E-2,1.3402479E-2,-2.8582213E-2],"split_indices":[12,25,19,23,22,25,3,22,22,23,17,0,0,7,23,23,8,10,8,3,3,0,3,22,3,22,5,9,19,23,7,0,0,0,0,0,0,0,0,0,0,0,0,0,0,0,0,0,0,0,0,0,0,0,0,0,0,0,0,0,0,0,0],"sum_hessian":[2.9266143E4,2.401795E4,5.248193E3,1.3949178E4,1.0068771E4,4.846487E3,4.0170596E2,1.5329163E3,1.2416262E4,3.270725E3,6.7980464E3,3.3089944E3,1.5374926E3,1.660791E2,2.3562686E2,6.10128E2,9.227883E2,3.452071E3,8.96419E3,4.6442484E2,2.8063003E3,5.8604326E3,9.376139E2,1.6593425E3,1.6496517E3,7.864432E2,7.510493E2,1.4059216E1,1.5201988E2,1.5435675E2,8.127011E1,2.939804E2,3.161476E2,1.0453509E2,8.1825323E2,1.7916024E3,1.6604686E3,1.1044515E3,7.8597393E3,9.01676E1,3.7425726E2,1.7022601E3,1.1040402E3,3.303345E3,2.5570876E3,7.474987E2,1.901152E2,1.101124E3,5.5821857E2,1.435674E3,2.139778E2,6.8642065E2,1.0002257E2,5.625952E2,1.8845412E2,1.410498E0,1.2648718E1,1.3773787E2,1.4282022E1,3.9307484E1,1.1504926E2,1.9288544E1,6.1981564E1],"tree_param":{"num_deleted":"0","num_feature":"28","num_nodes":"63","size_leaf_vector":"0"}},{"base_weights":[4.8048788E-1,4.1186544E-1,7.8240794E-1,5.2188456E-1,2.511935E-1,8.346733E-1,4.6648806E-1,2.0945847E-1,5.591201E-1,4.206749E-1,1.674373E-1,9.244989E-1,7.197142E-1,3.0773133E-1,6.5342724E-1,4.3986112E-1,1.2966156E-1,7.006847E-1,5.036004E-1,9.269683E-2,4.7282457E-1,-1.7929445E-1,2.1142127E-1,9.7394377E-1,7.8473413E-1,6.386489E-1,8.380548E-1,3.982496E-1,-6.156437E-3,8.058719E-1,4.1846204E-1,2.6376253E-1,6.561436E-1,5.026903E-1,8.782026E-2,6.0832924E-1,8.039587E-1,8.349323E-1,4.5495442E-1,-9.389331E-2,2.2481814E-1,3.7067598E-1,5.726919E-1,-2.7567387E-1,3.38736E-2,1.1668867E-1,3.3283275E-1,-3.9014602E-1,9.7835064E-1,8.2322717E-1,2.578531E-3,6.594637E-1,1.1697831E-1,8.956838E-1,6.3428867E-1,-1.4168455E-1,4.4103682E-1,-1.4043216E-1,7.0778793E-1,9.109648E-1,4.346886E-1,1.6456595E-1,7.462472E-1],"default_left":[true,true,true,false,false,true,true,false,false,false,false,true,true,true,true,false,true,true,true,true,true,true,true,true,true,true,true,false,true,true,true,false,false,false,false,false,false,false,false,false,false,false,false,false,false,false,false,false,false,false,false,false,false,false,false,false,false,false,false,false,false,false,false],"id":5,"leaf_child_counts":[0,0,0,0,0,0,0,0,0,0,0,0,0,0,0,0,0,0,0,0,0,0,0,0,0,0,0,0,0,0,0,0,0,0,0,0,0,0,0,0,0,0,0,0,0,0,0,0,0,0,0,0,0,0,0,0,0,0,0,0,0,0,0],"left_children":[1,3,5,7,9,11,13,15,17,19,21,23,25,27,29,31,33,35,37,39,41,43,45,47,49,51,53,55,57,59,61,-1,-1,-1,-1,-1,-1,-1,-1,-1,-1,-1,-1,-1,-1,-1,-1,-1,-1,-1,-1,-1,-1,-1,-1,-1,-1,-1,-1,-1,-1,-1,-1],"loss_changes":[6.180625E2,4.2980127E2,9.086035E1,1.6781567E2,1.4027881E2,4.8287598E1,2.314824E1,2.8235077E1,1.01017334E2,5.5876343E1,1.00977615E2,1.7602295E1,1.9456543E1,1.2144272E1,1.2572708E1,1.488797E1,1.78176E1,3.414099E1,1.4899927E2,1.1109247E1,2.8562134E1,1.5328295E1,6.7522705E1,1.2158203E1,2.106314E1,1.3397491E1,9.342651E0,7.7255898E0,9.363471E0,8.0890045E0,1.1853394E1,0E0,0E0,0E0,0E0,0E0,0E0,0E0,0E0,0E0,0E0,0E0,0E0,0E0,0E0,0E0,0E0,0E0,0E0,0E0,0E0,0E0,0E0,0E0,0E0,0E0,0E0,0E0,0E0,0E0,0E0,0E0,0E0],"parents":[2147483647,0,0,1,1,2,2,3,3,4,4,5,5,6,6,7,7,8,8,9,9,10,10,11,11,12,12,13,13,14,14,15,15,16,16,17,17,18,18,19,19,20,20,21,21,22,22,23,23,24,24,25,25,26,26,27,27,28,28,29,29,30,30],"right_children":[2,4,6,8,10,12,14,16,18,20,22,24,26,28,30,32,34,36,38,40,42,44,46,48,50,52,54,56,58,60,62,-1,-1,-1,-1,-1,-1,-1,-1,-1,-1,-1,-1,-1,-1,-1,-1,-1,-1,-1,-1,-1,-1,-1,-1,-1,-1,-1,-1,-1,-1,-1,-1],"split_conditions":[1.5E0,1.0535E3,1.5E0,3.05E1,3.05E1,1.181E3,2.95E1,2.45E1,2.85E1,2.95E1,3.25E1,6.78132E5,1.3045E3,2.507E3,8.5E0,2.45E1,3.5E1,2.5E0,5.55E1,6.596225E5,6.523325E5,6.52853E5,1.0155E3,1.5E0,3.45E1,3.95E1,1.5E0,2.15E1,1.55E1,1.5571E4,5.423535E5,2.6376253E-2,6.5614365E-2,5.0269034E-2,8.782026E-3,6.0832925E-2,8.039587E-2,8.349323E-2,4.5495443E-2,-9.389332E-3,2.2481814E-2,3.70676E-2,5.7269193E-2,-2.7567387E-2,3.38736E-3,1.1668867E-2,3.3283275E-2,-3.9014604E-2,9.7835064E-2,8.232272E-2,2.578531E-4,6.594637E-2,1.1697832E-2,8.9568384E-2,6.342887E-2,-1.4168455E-2,4.4103682E-2,-1.4043217E-2,7.0778795E-2,9.109648E-2,4.346886E-2,1.6456595E-2,7.462472E-2],"split_indices":[12,25,17,23,22,25,23,22,22,23,23,3,0,25,19,23,8,10,8,3,3,3,0,10,22,22,5,23,9,4,3,0,0,0,0,0,0,0,0,0,0,0,0,0,0,0,0,0,0,0,0,0,0,0,0,0,0,0,0,0,0,0,0],"sum_hessian":[2.9845986E4,2.43206E4,5.525387E3,1.443445E4,9.886148E3,4.739628E3,7.8575934E2,1.5378336E3,1.2896617E4,3.2684304E3,6.617718E3,2.65671E3,2.082918E3,4.263396E2,3.594197E2,3.9443738E2,1.1433962E3,3.6297725E3,9.266845E3,4.4877682E2,2.8196536E3,7.4462897E2,5.873089E3,1.9580415E3,6.986685E2,1.2399366E3,8.429813E2,3.3070334E2,9.563628E1,2.1651541E2,1.4290431E2,2.1863934E2,1.7579802E2,1.1420524E2,1.029191E3,1.919817E3,1.7099553E3,1.1843021E3,8.0825425E3,1.8615965E2,2.626172E2,1.3962355E3,1.4234182E3,5.1258246E2,2.3204651E2,3.3001067E3,2.5729822E3,6.023426E0,1.9520181E3,6.6584705E2,3.2821514E1,1.1921072E3,4.7829464E1,6.544846E2,1.8849667E2,2.411269E1,3.0659064E2,8.117291E1,1.44633665E1,1.676068E2,4.890861E1,8.137491E1,6.1529392E1],"tree_param":{"num_deleted":"0","num_feature":"28","num_nodes":"63","size_leaf_vector":"0"}},{"base_weights":[-6.010378E-1,-6.016131E-1,-3.0750343E-1,-5.963245E-1,-6.2852204E-1,-3.609998E-1,5.382516E-1,-5.9117836E-1,-6.207936E-1,-6.290542E-1,-2.4646717E-1,-1.0520201E-1,-5.287763E-1,8.236272E-1,1.3343449E-2,-6.0115165E-1,-5.652403E-1,-6.149075E-1,-6.7001975E-1,-6.0712165E-1,-6.3886714E-1,5.711987E-1,-5.900195E-1,-3.712799E-1,5.968044E-1,-6.096305E-1,9.08999E-2,-5.863792E-1,-6.24488E-1,-5.348965E-1,-5.90018E-1,-6.165805E-1,-4.2176607E-1,3.6539774E-2,-6.723296E-1,-6.116114E-1,-2.6968077E-1,-6.394389E-1,-4.683795E-2,-5.8556384E-1,4.412212E-1,-4.128778E-1,9.322133E-1,-6.4231974E-1,4.7145803E-2,5.6595063E-1,-4.450381E-1],"default_left":[true,true,true,true,true,true,true,true,true,true,true,true,true,false,false,true,true,true,true,true,true,false,false,true,true,true,true,false,false,false,false,false,false,false,false,false,false,false,false,false,false,false,false,false,false,false,false],"id":6,"leaf_child_counts":[0,0,0,0,0,0,0,0,0,0,0,0,0,0,0,0,0,0,0,0,0,0,0,0,0,0,0,0,0,0,0,0,0,0,0,0,0,0,0,0,0,0,0,0,0,0,0],"left_children":[1,3,5,7,9,11,13,15,17,19,21,23,25,-1,-1,27,29,31,33,35,37,-1,-1,39,41,43,45,-1,-1,-1,-1,-1,-1,-1,-1,-1,-1,-1,-1,-1,-1,-1,-1,-1,-1,-1,-1],"loss_changes":[4.3916016E0,3.4746094E0,2.6853924E0,2.4814453E0,7.4438477E-1,2.192401E0,5.3978467E-1,4.501465E0,7.213135E-1,5.628662E-1,2.5275185E0,4.330242E0,1.6278973E0,0E0,0E0,4.288086E0,3.6046143E0,8.729248E-1,6.8814087E-1,1.9342957E0,9.967041E-1,0E0,0E0,3.1427977E0,2.562184E0,6.2911224E-1,1.3956807E0,0E0,0E0,0E0,0E0,0E0,0E0,0E0,0E0,0E0,0E0,0E0,0E0,0E0,0E0,0E0,0E0,0E0,0E0,0E0,0E0],"parents":[2147483647,0,0,1,1,2,2,3,3,4,4,5,5,6,6,7,7,8,8,9,9,10,10,11,11,12,12,15,15,16,16,17,17,18,18,19,19,20,20,23,23,24,24,25,25,26,26],"right_children":[2,4,6,8,10,12,14,16,18,20,22,24,26,-1,-1,28,30,32,34,36,38,-1,-1,40,42,44,46,-1,-1,-1,-1,-1,-1,-1,-1,-1,-1,-1,-1,-1,-1,-1,-1,-1,-1,-1,-1],"split_conditions":[9.01051E5,4.5E0,1.833E3,3.05E1,3.0885E3,4.565E2,9.066985E5,1.55E1,3.1825E3,3.795E2,3.4695E3,1.25E1,7.5585E3,8.236272E-2,1.3343449E-3,6.5E0,1.95E1,3.124E3,1.8E1,5.25E1,4.7845E3,5.7119872E-2,-5.9001952E-2,2.63845E4,3.875E2,2.7E1,9.07061E5,-5.8637917E-2,-6.24488E-2,-5.348965E-2,-5.90018E-2,-6.165805E-2,-4.2176608E-2,3.6539775E-3,-6.723296E-2,-6.116114E-2,-2.6968077E-2,-6.394389E-2,-4.683795E-3,-5.8556385E-2,4.4122122E-2,-4.128778E-2,9.322133E-2,-6.423198E-2,4.7145803E-3,5.6595065E-2,-4.450381E-2],"split_indices":[3,12,0,11,7,0,3,11,25,7,24,18,2,0,0,11,11,25,8,12,0,0,0,1,8,10,3,0,0,0,0,0,0,0,0,0,0,0,0,0,0,0,0,0,0,0,0],"sum_hessian":[2.7101215E4,2.7047156E4,5.4057873E1,2.2623914E4,4.4232437E3,5.1381042E1,2.6768322E0,1.8713424E4,3.9104897E3,4.416446E3,6.797843E0,2.0996338E1,3.0384705E1,1.365413E0,1.3114192E0,1.3500325E4,5.213099E3,3.5048906E3,4.05599E2,1.384618E3,3.031828E3,1.8151358E0,4.982707E0,1.5567125E1,5.429212E0,2.6892084E1,3.4926202E0,8.283064E3,5.21726E3,2.3534941E3,2.8596047E3,3.472618E3,3.2272717E1,1.2733366E0,4.0432568E2,1.3656354E3,1.8982664E1,3.0288225E3,3.005332E0,1.2539376E1,3.0277488E0,1.2962223E0,4.1329894E0,2.5638033E1,1.2540509E0,1.8217961E0,1.6708243E0],"tree_param":{"num_deleted":"0","num_feature":"28","num_nodes":"47","size_leaf_vector":"0"}},{"base_weights":[1.0330623E-1,1.6295147E-1,-1.7496647E-1,5.2287936E-2,3.142857E-1,-2.132637E-1,2.7512833E-1,3.327691E-1,1.7075585E-2,1.8218723E-1,4.0628505E-1,-2.8162766E-1,-6.785673E-2,4.8175812E-1,1.2601604E-1,1.610171E-1,4.447618E-1,-9.1921255E-2,8.230997E-2,4.5912433E-1,1.3635367E-1,3.6272737E-1,6.8472093E-1,-2.2113255E-1,-3.851305E-1,7.408582E-2,-1.7761788E-1,5.7085353E-1,1.5649608E-1,2.7956238E-1,-1.7235409E-1,2.648314E-1,-3.3342596E-3,5.0957993E-2,4.93979E-1,2.0245934E-2,-1.4909449E-1,-2.6241425E-1,1.317799E-1,6.28543E-1,2.8211245E-1,3.23529E-1,7.667549E-2,3.987971E-1,5.4337665E-2,7.678028E-1,3.689161E-1,-2.7838054E-1,-4.1878536E-2,-4.075316E-1,-1.8687028E-1,-1.2885113E-1,1.6309212E-1,-2.4886613E-1,2.6089698E-2,-4.310267E-1,6.062278E-1,4.8489657E-1,-1.8021427E-1,5.866986E-1,1.6870879E-1,-6.541517E-1,-1.0329645E-1],"default_left":[true,true,true,false,false,true,true,false,false,false,true,true,true,true,true,true,true,true,true,true,true,true,true,false,true,false,true,true,true,false,true,false,false,false,false,false,false,false,false,false,false,false,false,false,false,false,false,false,false,false,false,false,false,false,false,false,false,false,false,false,false,false,false],"id":7,"leaf_child_counts":[0,0,0,0,0,0,0,0,0,0,0,0,0,0,0,0,0,0,0,0,0,0,0,0,0,0,0,0,0,0,0,0,0,0,0,0,0,0,0,0,0,0,0,0,0,0,0,0,0,0,0,0,0,0,0,0,0,0,0,0,0,0,0],"left_children":[1,3,5,7,9,11,13,15,17,19,21,23,25,27,29,31,33,35,37,39,41,43,45,47,49,51,53,55,57,59,61,-1,-1,-1,-1,-1,-1,-1,-1,-1,-1,-1,-1,-1,-1,-1,-1,-1,-1,-1,-1,-1,-1,-1,-1,-1,-1,-1,-1,-1,-1,-1,-1],"loss_changes":[4.873553E2,4.0491742E2,8.939957E1,1.3794319E2,1.2404071E2,4.746823E1,1.2475044E1,2.989415E1,8.825149E1,5.317772E1,7.2753235E1,2.0258636E1,2.3835236E1,4.842491E0,1.0936939E1,1.051885E1,1.8240799E1,2.9805164E1,1.3244582E2,1.7671967E1,4.0191193E1,5.7899902E1,2.10513E1,2.1055199E1,5.2407227E0,1.2077444E1,1.2525534E1,4.9824905E0,4.286039E0,5.25671E0,2.6398454E0,0E0,0E0,0E0,0E0,0E0,0E0,0E0,0E0,0E0,0E0,0E0,0E0,0E0,0E0,0E0,0E0,0E0,0E0,0E0,0E0,0E0,0E0,0E0,0E0,0E0,0E0,0E0,0E0,0E0,0E0,0E0,0E0],"parents":[2147483647,0,0,1,1,2,2,3,3,4,4,5,5,6,6,7,7,8,8,9,9,10,10,11,11,12,12,13,13,14,14,15,15,16,16,17,17,18,18,19,19,20,20,21,21,22,22,23,23,24,24,25,25,26,26,27,27,28,28,29,29,30,30],"right_children":[2,4,6,8,10,12,14,16,18,20,22,24,26,28,30,32,34,36,38,40,42,44,46,48,50,52,54,56,58,60,62,-1,-1,-1,-1,-1,-1,-1,-1,-1,-1,-1,-1,-1,-1,-1,-1,-1,-1,-1,-1,-1,-1,-1,-1,-1,-1,-1,-1,-1,-1,-1,-1],"split_conditions":[1.5E0,1.0245E3,1.5E0,3.05E1,3.25E1,1.7745E3,5.41979E5,2.75E1,3.15E1,2.95E1,1.5E0,1.3195E3,8.075E2,2.4235E3,2.95E1,1.5E0,3.5E1,1.7475E3,3.6E1,6.614865E5,5.24737E5,2.55E1,7.054715E5,3.45E1,6.846905E5,2.95E1,1.5E0,1.975E2,1.326E3,2.35E1,1.365E2,2.6483139E-2,-3.3342597E-4,5.0957995E-3,4.93979E-2,2.0245935E-3,-1.4909449E-2,-2.6241425E-2,1.317799E-2,6.2854305E-2,2.8211245E-2,3.2352902E-2,7.667549E-3,3.987971E-2,5.4337666E-3,7.678028E-2,3.689161E-2,-2.7838055E-2,-4.1878535E-3,-4.075316E-2,-1.8687028E-2,-1.2885113E-2,1.6309213E-2,-2.4886614E-2,2.6089698E-3,-4.310267E-2,6.062278E-2,4.8489656E-2,-1.8021427E-2,5.866986E-2,1.6870879E-2,-6.541517E-2,-1.0329645E-2],"split_indices":[12,25,19,23,22,25,3,22,22,23,17,0,0,27,23,10,8,2,8,3,3,10,3,22,3,22,5,25,2,23,8,0,0,0,0,0,0,0,0,0,0,0,0,0,0,0,0,0,0,0,0,0,0,0,0,0,0,0,0,0,0,0,0],"sum_hessian":[2.9360205E4,2.4178234E4,5.1819717E3,1.3966524E4,1.021171E4,4.7761123E3,4.0585913E2,1.556879E3,1.2409645E4,4.1934585E3,6.0182515E3,3.2480742E3,1.5280383E3,1.6918419E2,2.3667494E2,6.154551E2,9.4142395E2,4.6461753E3,7.7634697E3,5.941924E2,3.5992664E3,5.206124E3,8.1212756E2,2.0519128E3,1.1961614E3,6.664778E2,8.6156055E2,1.3221338E2,3.6970806E1,1.563022E2,8.037274E1,3.7682086E2,2.3863423E2,1.0481311E2,8.3661084E2,1.5688739E3,3.0773015E3,9.737468E2,6.7897227E3,3.023047E2,2.9188766E2,8.690734E2,2.7301929E3,4.6607075E3,5.454164E2,6.4184094E2,1.7028664E2,1.5548049E3,4.9710788E2,1.073781E3,1.2238039E2,2.0305618E2,4.634216E2,6.3814343E2,2.2341711E2,4.127534E0,1.2808585E2,1.8493559E1,1.8477247E1,4.0313942E1,1.1598826E2,9.013724E0,7.135902E1],"tree_param":{"num_deleted":"0","num_feature":"28","num_nodes":"63","size_leaf_vector":"0"}},{"base_weights":[4.3582043E-1,3.7471178E-1,7.0152205E-1,4.757024E-1,2.3569293E-1,7.474026E-1,4.2109007E-1,1.6119139E-1,5.051187E-1,2.800542E-1,-3.6859803E-2,8.264753E-1,6.457223E-1,2.7576208E-1,5.9073156E-1,2.2872779E-1,-1.4224257E-1,4.3942222E-1,6.029914E-1,4.11919E-1,1.8707176E-1,-2.8175703E-1,9.487129E-2,8.5455185E-1,6.3341355E-1,5.743063E-1,7.494036E-1,3.9299923E-1,6.7254275E-2,7.2454065E-1,3.8173276E-1,-4.663794E-3,2.9124668E-1,-3.1298944E-1,1.04685895E-1,7.7467704E-1,3.8716742E-1,3.9912716E-1,6.424543E-1,2.4563873E-1,4.6093145E-1,1.4722906E-1,5.2669495E-1,1.7353581E-1,-3.2304767E-1,-1.3764077E-1,2.554216E-1,8.930608E-1,7.210578E-1,7.084865E-1,3.6042485E-1,5.929466E-1,9.9476956E-2,7.994893E-1,5.709041E-1,7.179425E-2,4.823145E-1,5.9212214E-1,-1.3771486E-2,7.9205406E-1,2.328846E-1,6.159137E-1,7.478645E-2],"default_left":[true,true,true,false,true,true,true,true,true,false,true,false,true,true,true,false,true,true,true,true,true,true,true,true,true,true,true,false,false,true,false,false,false,false,false,false,false,false,false,false,false,false,false,false,false,false,false,false,false,false,false,false,false,false,false,false,false,false,false,false,false,false,false],"id":8,"leaf_child_counts":[0,0,0,0,0,0,0,0,0,0,0,0,0,0,0,0,0,0,0,0,0,0,0,0,0,0,0,0,0,0,0,0,0,0,0,0,0,0,0,0,0,0,0,0,0,0,0,0,0,0,0,0,0,0,0,0,0,0,0,0,0,0,0],"left_children":[1,3,5,7,9,11,13,15,17,19,21,23,25,27,29,31,33,35,37,39,41,43,45,47,49,51,53,55,57,59,61,-1,-1,-1,-1,-1,-1,-1,-1,-1,-1,-1,-1,-1,-1,-1,-1,-1,-1,-1,-1,-1,-1,-1,-1,-1,-1,-1,-1,-1,-1,-1,-1],"loss_changes":[4.936045E2,3.4710767E2,7.28479E1,1.3244092E2,1.25856445E2,3.8746582E1,1.9604599E1,2.5169312E1,8.395654E1,1.0967932E2,4.705762E1,1.4336548E1,1.542865E1,1.0575951E1,1.004512E1,1.4646534E1,9.473972E0,1.370675E2,4.2046265E1,3.004895E1,7.0984634E1,9.646606E0,3.544967E1,1.165979E1,6.9656067E0,1.1204041E1,7.324188E0,7.9241295E0,6.698062E0,7.24765E0,1.0461355E1,0E0,0E0,0E0,0E0,0E0,0E0,0E0,0E0,0E0,0E0,0E0,0E0,0E0,0E0,0E0,0E0,0E0,0E0,0E0,0E0,0E0,0E0,0E0,0E0,0E0,0E0,0E0,0E0,0E0,0E0,0E0,0E0],"parents":[2147483647,0,0,1,1,2,2,3,3,4,4,5,5,6,6,7,7,8,8,9,9,10,10,11,11,12,12,13,13,14,14,15,15,16,16,17,17,18,18,19,19,20,20,21,21,22,22,23,23,24,24,25,25,26,26,27,27,28,28,29,29,30,30],"right_children":[2,4,6,8,10,12,14,16,18,20,22,24,26,28,30,32,34,36,38,40,42,44,46,48,50,52,54,56,58,60,62,-1,-1,-1,-1,-1,-1,-1,-1,-1,-1,-1,-1,-1,-1,-1,-1,-1,-1,-1,-1,-1,-1,-1,-1,-1,-1,-1,-1,-1,-1,-1,-1],"split_conditions":[1.5E0,9.895E2,1.5E0,2.85E1,1.5E0,1.181E3,2.95E1,2.85E1,2.5E0,3.25E1,5.324225E5,3.95E1,1.3045E3,1.706E3,8.5E0,2.15E1,3.4105E3,3.5E1,6.62E2,5.24737E5,2.55E1,1.804E3,8.025E2,6.846905E5,1.25E1,3.95E1,1.5E0,2.45E1,2.45E1,2.5E0,3.25E1,-4.663794E-4,2.9124668E-2,-3.1298947E-2,1.046859E-2,7.74677E-2,3.8716745E-2,3.9912716E-2,6.424543E-2,2.4563873E-2,4.6093147E-2,1.4722906E-2,5.2669495E-2,1.7353581E-2,-3.2304768E-2,-1.3764078E-2,2.554216E-2,8.930608E-2,7.210578E-2,7.084865E-2,3.6042485E-2,5.929466E-2,9.947696E-3,7.994893E-2,5.709041E-2,7.179425E-3,4.823145E-2,5.9212215E-2,-1.3771486E-3,7.920541E-2,2.328846E-2,6.159137E-2,7.4786446E-3],"split_indices":[12,25,17,23,17,25,23,22,10,22,3,22,0,25,19,23,2,8,2,3,10,4,27,3,9,22,5,23,22,21,22,0,0,0,0,0,0,0,0,0,0,0,0,0,0,0,0,0,0,0,0,0,0,0,0,0,0,0,0,0,0,0,0],"sum_hessian":[3.0415793E4,2.4730453E4,5.685341E3,1.4323027E4,1.0407426E4,4.884533E3,8.008076E2,1.2256125E3,1.3097414E4,8.950581E3,1.456844E3,2.743723E3,2.1408105E3,4.3272635E2,3.6808127E2,1.002687E3,2.2292555E2,7.840206E3,5.2572085E3,3.699971E3,5.2506104E3,5.091535E2,9.476905E2,2.3923782E3,3.5134473E2,1.2715217E3,8.692888E2,2.764197E2,1.5630664E2,2.2290326E2,1.4517801E2,2.1203955E2,7.9064746E2,1.3163478E2,9.1290764E1,1.0553701E3,6.784836E3,8.544191E2,4.4027896E3,8.436852E2,2.8562856E3,4.700596E3,5.500141E2,4.2069527E1,4.6708395E2,3.871521E2,5.605384E2,1.8523439E3,5.400342E2,2.743125E2,7.703225E1,1.2232521E3,4.8269638E1,6.761007E2,1.9318813E2,6.0531998E1,2.1588771E2,2.0059244E1,1.3624739E2,1.9545297E2,2.7450287E1,8.177908E1,6.3398926E1],"tree_param":{"num_deleted":"0","num_feature":"28","num_nodes":"63","size_leaf_vector":"0"}},{"base_weights":[-5.7940406E-1,-5.7998693E-1,-2.8562889E-1,-5.7472765E-1,-6.068489E-1,-3.3927658E-1,5.3443474E-1,-5.694964E-1,-5.9964454E-1,-6.0738826E-1,-2.2798395E-1,-8.77346E-2,-5.072635E-1,1.7749157E-2,8.1012183E-1,-5.796288E-1,-5.431996E-1,-5.9347194E-1,-6.4925027E-1,-5.852151E-1,-6.174618E-1,5.567245E-1,-5.7198364E-1,-3.4975383E-1,5.7976997E-1,-5.89024E-1,9.95874E-2,-5.646997E-1,-6.032762E-1,-5.1256967E-1,-5.682938E-1,-5.953267E-1,-1.8847728E-1,-6.51566E-1,6.260377E-2,-5.8974314E-1,-2.477797E-1,-6.1804837E-1,-3.3722676E-2,-5.6519806E-1,4.3451974E-1,-3.9786184E-1,8.923152E-1,-6.5717983E-1,-1.659648E-1,5.538108E-1,-4.3040937E-1],"default_left":[true,true,true,true,true,true,true,true,true,true,true,true,true,false,false,true,true,true,true,true,true,false,false,true,true,true,true,false,false,false,false,false,false,false,false,false,false,false,false,false,false,false,false,false,false,false,false],"id":9,"leaf_child_counts":[0,0,0,0,0,0,0,0,0,0,0,0,0,0,0,0,0,0,0,0,0,0,0,0,0,0,0,0,0,0,0,0,0,0,0,0,0,0,0,0,0,0,0,0,0,0,0],"left_children":[1,3,5,7,9,11,13,15,17,19,21,23,25,-1,-1,27,29,31,33,35,37,-1,-1,39,41,43,45,-1,-1,-1,-1,-1,-1,-1,-1,-1,-1,-1,-1,-1,-1,-1,-1,-1,-1,-1,-1],"loss_changes":[4.2998047E0,3.328125E0,2.5397902E0,2.4980469E0,7.286377E-1,2.1075082E0,5.0980973E-1,4.4873047E0,7.663574E-1,5.8496094E-1,2.3790245E0,3.9808977E0,1.5633564E0,0E0,0E0,4.2470703E0,3.5740967E0,2.4089355E0,7.0932007E-1,1.905304E0,9.70459E-1,0E0,0E0,2.972086E0,2.3305738E0,6.6571045E-1,1.3111198E0,0E0,0E0,0E0,0E0,0E0,0E0,0E0,0E0,0E0,0E0,0E0,0E0,0E0,0E0,0E0,0E0,0E0,0E0,0E0,0E0],"parents":[2147483647,0,0,1,1,2,2,3,3,4,4,5,5,6,6,7,7,8,8,9,9,10,10,11,11,12,12,15,15,16,16,17,17,18,18,19,19,20,20,23,23,24,24,25,25,26,26],"right_children":[2,4,6,8,10,12,14,16,18,20,22,24,26,-1,-1,28,30,32,34,36,38,-1,-1,40,42,44,46,-1,-1,-1,-1,-1,-1,-1,-1,-1,-1,-1,-1,-1,-1,-1,-1,-1,-1,-1,-1],"split_conditions":[9.01051E5,4.5E0,1.833E3,3.05E1,3.0885E3,4.565E2,1.33605E4,1.55E1,3.1495E3,3.815E2,3.4695E3,1.25E1,7.5585E3,1.7749157E-3,8.101218E-2,6.5E0,1.95E1,3.124E3,4.7795E3,5.25E1,4.7845E3,5.5672448E-2,-5.7198364E-2,9.06347E5,3.875E2,1.03E3,9.07061E5,-5.6469973E-2,-6.032762E-2,-5.1256966E-2,-5.682938E-2,-5.9532672E-2,-1.8847728E-2,-6.51566E-2,6.2603774E-3,-5.8974314E-2,-2.477797E-2,-6.180484E-2,-3.3722676E-3,-5.6519806E-2,4.3451976E-2,-3.9786186E-2,8.923152E-2,-6.571799E-2,-1.659648E-2,5.538108E-2,-4.304094E-2],"split_indices":[3,12,0,11,7,0,4,11,25,7,24,18,2,0,0,11,11,25,0,12,0,0,0,3,8,27,3,0,0,0,0,0,0,0,0,0,0,0,0,0,0,0,0,0,0,0,0],"sum_hessian":[2.6076682E4,2.6024074E4,5.2608257E1,2.178186E4,4.2422153E3,4.992828E1,2.679975E0,1.8021996E4,3.759862E3,4.2355815E3,6.6335163E0,2.0601725E1,2.9326555E1,1.3027594E0,1.3772156E0,1.2994155E4,5.0278413E3,3.3553132E3,4.04549E2,1.3416084E3,2.8939731E3,1.8332487E0,4.8002677E0,1.5136241E1,5.4654837E0,2.5870428E1,3.4561274E0,7.980665E3,5.0134897E3,2.273832E3,2.7540093E3,3.339549E3,1.5764151E1,4.0332166E2,1.2273709E0,1.3231061E3,1.85024E1,2.8910093E3,2.9639192E0,1.2093442E1,3.0427995E0,1.2578851E0,4.2075987E0,2.1804306E1,4.0661216E0,1.8369085E0,1.619219E0],"tree_param":{"num_deleted":"0","num_feature":"28","num_nodes":"47","size_leaf_vector":"0"}},{"base_weights":[9.717121E-2,1.5144467E-1,-1.6077603E-1,5.141009E-2,2.8988382E-1,-1.9701605E-1,2.552365E-1,1.6421622E-2,3.039282E-1,3.4941542E-1,1.1776367E-1,-2.3477869E-1,4.6323482E-2,4.4542953E-1,1.1657912E-1,8.690806E-2,-9.800537E-2,7.983878E-1,2.4285096E-1,4.351593E-1,2.040191E-1,9.6805744E-2,6.986605E-1,-1.5316904E-1,-3.172086E-1,1.2192498E-1,-2.3810796E-1,9.792092E-1,3.8978308E-1,2.4323782E-1,-1.9782552E-1,-2.523874E-1,1.3071662E-1,1.06801905E-1,-1.3789564E-1,9.12554E-1,3.817076E-1,4.1549987E-1,7.7560864E-2,3.5077435E-1,5.643863E-1,1.6337022E-1,5.6001097E-1,1.5824434E-1,-1.19273156E-1,-2.5946E-1,8.17334E-1,-2.298375E-1,-4.5929514E-2,-3.4483036E-1,-1.2140186E-1,4.4952508E-2,4.4724265E-1,1.6284199E-1,-2.9693446E-1,1.028841E0,2.9618588E-1,4.6097225E-1,-5.773936E-2,1.7737654E-1,8.0930364E-1,-5.0131494E-1,-2.0463029E-2],"default_left":[true,true,true,true,true,true,true,true,true,true,true,true,true,true,true,true,true,true,true,true,true,true,true,false,true,false,true,true,true,true,true,false,false,false,false,false,false,false,false,false,false,false,false,false,false,false,false,false,false,false,false,false,false,false,false,false,false,false,false,false,false,false,false],"id":10,"leaf_child_counts":[0,0,0,0,0,0,0,0,0,0,0,0,0,0,0,0,0,0,0,0,0,0,0,0,0,0,0,0,0,0,0,0,0,0,0,0,0,0,0,0,0,0,0,0,0,0,0,0,0,0,0,0,0,0,0,0,0,0,0,0,0,0,0],"left_children":[1,3,5,7,9,11,13,15,17,19,21,23,25,27,29,31,33,35,37,39,41,43,45,47,49,51,53,55,57,59,61,-1,-1,-1,-1,-1,-1,-1,-1,-1,-1,-1,-1,-1,-1,-1,-1,-1,-1,-1,-1,-1,-1,-1,-1,-1,-1,-1,-1,-1,-1,-1,-1],"loss_changes":[4.1187134E2,3.3657794E2,7.715471E1,1.2466702E2,1.0442499E2,4.3246002E1,1.0767166E1,9.997798E1,5.1665146E1,9.434332E1,3.1848156E1,2.7351654E1,1.3638511E1,4.7458267E0,9.550785E0,1.1404759E2,3.8618164E1,8.6117935E0,4.3624496E1,5.175122E1,4.0596893E1,3.3624992E1,1.057357E1,1.6833473E1,1.0912827E1,1.2516674E1,3.19096E0,2.2532654E-1,5.05999E0,6.214883E0,3.7080204E0,0E0,0E0,0E0,0E0,0E0,0E0,0E0,0E0,0E0,0E0,0E0,0E0,0E0,0E0,0E0,0E0,0E0,0E0,0E0,0E0,0E0,0E0,0E0,0E0,0E0,0E0,0E0,0E0,0E0,0E0,0E0,0E0],"parents":[2147483647,0,0,1,1,2,2,3,3,4,4,5,5,6,6,7,7,8,8,9,9,10,10,11,11,12,12,13,13,14,14,15,15,16,16,17,17,18,18,19,19,20,20,21,21,22,22,23,23,24,24,25,25,26,26,27,27,28,28,29,29,30,30],"right_children":[2,4,6,8,10,12,14,16,18,20,22,24,26,28,30,32,34,36,38,40,42,44,46,48,50,52,54,56,58,60,62,-1,-1,-1,-1,-1,-1,-1,-1,-1,-1,-1,-1,-1,-1,-1,-1,-1,-1,-1,-1,-1,-1,-1,-1,-1,-1,-1,-1,-1,-1,-1,-1],"split_conditions":[1.5E0,1.0535E3,1.5E0,1.5E0,6.924385E5,3.04E3,5.41979E5,2.5E0,1.5E0,1.2375E3,3.45E1,9.5E2,2.31E3,2.8E1,3.05E1,3.5E1,6.62E2,3.05E1,7.605E2,2.5625E3,1.5E0,9.5E0,1.5E0,3.15E1,6.83626E5,3.75E1,3.8745E3,4.299E3,3.55E1,1.873E3,1.35E1,-2.5238741E-2,1.3071663E-2,1.068019E-2,-1.3789564E-2,9.1255404E-2,3.8170762E-2,4.1549988E-2,7.7560865E-3,3.5077434E-2,5.6438632E-2,1.6337022E-2,5.6001097E-2,1.5824435E-2,-1.1927316E-2,-2.5946E-2,8.17334E-2,-2.298375E-2,-4.5929514E-3,-3.4483038E-2,-1.21401865E-2,4.495251E-3,4.4724267E-2,1.62842E-2,-2.9693445E-2,1.0288411E-1,2.961859E-2,4.6097226E-2,-5.773936E-3,1.7737655E-2,8.093037E-2,-5.0131496E-2,-2.046303E-3],"split_indices":[12,25,19,17,3,25,3,10,11,0,22,0,0,7,23,8,2,23,27,25,17,10,9,22,3,22,4,26,23,15,19,0,0,0,0,0,0,0,0,0,0,0,0,0,0,0,0,0,0,0,0,0,0,0,0,0,0,0,0,0,0,0,0],"sum_hessian":[2.941729E4,2.430401E4,5.11328E3,1.4109798E4,1.0194212E4,4.7040254E3,4.092543E2,1.2393624E4,1.716174E3,7.5736616E3,2.6205505E3,4.0721277E3,6.3189764E2,1.7162625E2,2.3762807E2,7.669495E3,4.724129E3,1.8735359E2,1.5288203E3,4.7628794E3,2.8107822E3,2.530423E3,9.0127396E1,2.0476812E3,2.0244465E3,4.9966003E2,1.3223764E2,1.4635979E1,1.5699026E2,1.6955055E2,6.807751E1,8.764748E2,6.79302E3,7.6984784E2,3.954281E3,1.4612637E2,4.122721E1,7.4702435E2,7.8179596E2,2.8836057E3,1.8792736E3,2.5240347E3,2.8674765E2,1.9704303E3,5.599928E2,9.802197E0,8.03252E1,1.1933671E3,8.54314E2,1.7735035E3,2.5094293E2,4.0497763E2,9.46824E1,1.6693024E1,1.1554462E2,1.3172497E1,1.4634819E0,1.3541864E2,2.1571632E1,1.5305597E2,1.6494583E1,2.4436722E1,4.3640785E1],"tree_param":{"num_deleted":"0","num_feature":"28","num_nodes":"63","size_leaf_vector":"0"}},{"base_weights":[3.969687E-1,3.4212124E-1,6.339324E-1,4.6749562E-1,2.4973346E-1,3.5677245E-1,6.725082E-1,8.583095E-2,4.896006E-1,4.2087725E-1,1.8839943E-1,4.745699E-1,1.9053152E-1,7.123537E-1,4.9410975E-1,2.292483E-1,-3.2251805E-2,4.316509E-1,5.8217406E-1,1.2552826E-1,4.5922083E-1,2.2959623E-1,-9.0779714E-2,1.3656992E-1,5.71945E-1,3.1390613E-1,-3.3542994E-2,7.40723E-1,5.267163E-1,4.3902305E-1,6.88943E-1,2.5264055E-1,-5.3663915E-1,4.5831E-1,-7.989945E-2,6.9999945E-1,3.7523234E-1,3.709645E-1,6.2126E-1,5.0081956E-1,5.2297726E-2,4.070191E-1,6.221496E-1,1.4299579E-1,3.3316576E-1,-1.779948E-1,1.5203549E-1,-7.73121E-2,5.0589347E-1,3.564832E-1,7.076671E-1,4.3572938E-1,-2.7815249E-2,-2.626549E-1,1.9947992E-1,6.8046284E-1,7.9512244E-1,5.74713E-1,1.19685054E-1,4.8067382E-1,1.0717363E-1,3.0499724E-1,7.357778E-1],"default_left":[true,true,false,false,false,false,true,true,true,false,true,true,true,false,true,true,true,true,true,false,true,true,true,false,false,true,false,true,true,false,true,false,false,false,false,false,false,false,false,false,false,false,false,false,false,false,false,false,false,false,false,false,false,false,false,false,false,false,false,false,false,false,false],"id":11,"leaf_child_counts":[0,0,0,0,0,0,0,0,0,0,0,0,0,0,0,0,0,0,0,0,0,0,0,0,0,0,0,0,0,0,0,0,0,0,0,0,0,0,0,0,0,0,0,0,0,0,0,0,0,0,0,0,0,0,0,0,0,0,0,0,0,0,0],"left_children":[1,3,5,7,9,11,13,15,17,19,21,23,25,27,29,31,33,35,37,39,41,43,45,47,49,51,53,55,57,59,61,-1,-1,-1,-1,-1,-1,-1,-1,-1,-1,-1,-1,-1,-1,-1,-1,-1,-1,-1,-1,-1,-1,-1,-1,-1,-1,-1,-1,-1,-1,-1,-1],"loss_changes":[4.0088086E2,2.90187E2,6.176465E1,8.965674E1,1.5141034E2,1.3826607E1,3.5827393E1,9.885258E0,5.3661377E1,4.3052185E1,1.2223465E2,1.3589653E1,8.204694E0,2.15083E1,9.705811E0,4.856529E0,7.5343256E0,9.3370605E1,3.1685913E1,1.2033018E1,2.839978E1,8.3006714E1,2.8978668E1,7.479541E0,9.166275E0,7.9738846E0,5.719735E0,1.1274902E1,1.0767487E1,1.00345E1,3.44001E0,0E0,0E0,0E0,0E0,0E0,0E0,0E0,0E0,0E0,0E0,0E0,0E0,0E0,0E0,0E0,0E0,0E0,0E0,0E0,0E0,0E0,0E0,0E0,0E0,0E0,0E0,0E0,0E0,0E0,0E0,0E0,0E0],"parents":[2147483647,0,0,1,1,2,2,3,3,4,4,5,5,6,6,7,7,8,8,9,9,10,10,11,11,12,12,13,13,14,14,15,15,16,16,17,17,18,18,19,19,20,20,21,21,22,22,23,23,24,24,25,25,26,26,27,27,28,28,29,29,30,30],"right_children":[2,4,6,8,10,12,14,16,18,20,22,24,26,28,30,32,34,36,38,40,42,44,46,48,50,52,54,56,58,60,62,-1,-1,-1,-1,-1,-1,-1,-1,-1,-1,-1,-1,-1,-1,-1,-1,-1,-1,-1,-1,-1,-1,-1,-1,-1,-1,-1,-1,-1,-1,-1,-1],"split_conditions":[1.5E0,5.735E2,3.45E1,2.55E1,2.85E1,3.05E1,2.542E3,1.5E0,2.5E0,2.75E1,1.5E0,3.795E2,2.254E3,3.95E1,2.315E3,3.35E1,3.5E1,3.5E1,6.62E2,2.15E1,1.25E1,2.5E0,7.012665E5,3.05E1,2.65E1,9.5E0,2.95E1,9.5E2,1.396E3,4.05E1,3.8745E3,2.5264055E-2,-5.3663917E-2,4.5831002E-2,-7.989946E-3,6.999995E-2,3.7523236E-2,3.7096452E-2,6.2126E-2,5.0081957E-2,5.2297725E-3,4.070191E-2,6.221496E-2,1.4299579E-2,3.331658E-2,-1.779948E-2,1.52035495E-2,-7.73121E-3,5.058935E-2,3.564832E-2,7.076671E-2,4.357294E-2,-2.781525E-3,-2.626549E-2,1.9947993E-2,6.804629E-2,7.9512246E-2,5.74713E-2,1.1968506E-2,4.8067383E-2,1.0717363E-2,3.0499725E-2,7.3577784E-2],"split_indices":[12,25,23,23,22,22,25,21,10,23,17,7,25,22,0,22,8,8,2,22,10,10,3,23,23,19,23,0,7,22,4,0,0,0,0,0,0,0,0,0,0,0,0,0,0,0,0,0,0,0,0,0,0,0,0,0,0,0,0,0,0,0,0],"sum_hessian":[3.0860133E4,2.5061793E4,5.7983394E3,1.0630996E4,1.4430797E4,7.096776E2,5.088662E3,5.8227704E2,1.004872E4,3.8056934E3,1.0625104E4,4.14272E2,2.954056E2,4.1571606E3,9.3150104E2,2.6250742E2,3.1976962E2,6.1835605E3,3.8651587E3,4.3779144E2,3.3679019E3,9.258988E3,1.3661155E3,9.319259E1,3.210794E2,1.9025243E2,1.0515319E2,3.603483E3,5.53678E2,7.287183E2,2.0278273E2,2.5537762E2,7.1297812E0,2.754617E1,2.9222345E2,1.0722272E3,5.1113335E3,6.0521844E2,3.2599404E3,7.0525246E1,3.672662E2,2.5533252E3,8.145767E2,5.043886E3,4.215102E3,1.0052969E3,3.6081857E2,5.9516285E1,3.36763E1,1.2548918E2,1.9559023E2,1.4004976E2,5.0202667E1,5.2957428E1,5.2195766E1,1.7160562E3,1.8874268E3,4.9490704E2,5.8770912E1,6.47057E2,8.166131E1,2.2863405E1,1.7991933E2],"tree_param":{"num_deleted":"0","num_feature":"28","num_nodes":"63","size_leaf_vector":"0"}},{"base_weights":[-5.597007E-1,-5.6029147E-1,-2.6580006E-1,-5.550482E-1,-5.871937E-1,-3.1954685E-1,5.275044E-1,-5.4967326E-1,-5.8068883E-1,-5.87744E-1,-2.0917955E-1,-3.981388E-1,1.853889E-1,7.9118544E-1,2.2537827E-2,-5.599766E-1,-5.2300096E-1,-5.745458E-1,-6.3039225E-1,-5.654437E-1,-5.9790623E-1,5.460239E-1,-5.54993E-1,-1.3292076E-1,-5.703782E-1,5.274234E-1,-4.7405466E-1,-5.446267E-1,-5.843404E-1,-4.9192172E-1,-5.485518E-1,-5.7644695E-1,-1.6772017E-1,7.529498E-2,-6.327894E-1,-5.7006437E-1,-2.2777066E-1,-6.0791457E-1,-5.5091083E-1,-4.819829E-1,6.4412713E-1,-6.4008313E-1,-1.5015757E-1,4.3806292E-2,6.6525203E-1],"default_left":[true,true,true,true,true,true,true,true,true,true,true,true,true,false,false,true,true,true,true,true,true,false,false,true,true,true,false,false,false,false,false,false,false,false,false,false,false,false,false,false,false,false,false,false,false],"id":12,"leaf_child_counts":[0,0,0,0,0,0,0,0,0,0,0,0,0,0,0,0,0,0,0,0,0,0,0,0,0,0,0,0,0,0,0,0,0,0,0,0,0,0,0,0,0,0,0,0,0],"left_children":[1,3,5,7,9,11,13,15,17,19,21,23,25,-1,-1,27,29,31,33,35,37,-1,-1,39,41,43,-1,-1,-1,-1,-1,-1,-1,-1,-1,-1,-1,-1,-1,-1,-1,-1,-1,-1,-1],"loss_changes":[4.2026367E0,3.2021484E0,2.3933828E0,2.5683594E0,7.220459E-1,2.0378313E0,4.732448E-1,4.4716797E0,7.409668E-1,5.810547E-1,2.2506201E0,1.8950286E0,1.9073958E0,0E0,0E0,4.354248E0,3.5789795E0,2.39917E0,7.025604E-1,1.8800354E0,9.6746826E-1,0E0,0E0,5.271596E0,6.611557E-1,3.2492423E-1,0E0,0E0,0E0,0E0,0E0,0E0,0E0,0E0,0E0,0E0,0E0,0E0,0E0,0E0,0E0,0E0,0E0,0E0,0E0],"parents":[2147483647,0,0,1,1,2,2,3,3,4,4,5,5,6,6,7,7,8,8,9,9,10,10,11,11,12,12,15,15,16,16,17,17,18,18,19,19,20,20,23,23,24,24,25,25],"right_children":[2,4,6,8,10,12,14,16,18,20,22,24,26,-1,-1,28,30,32,34,36,38,-1,-1,40,42,44,-1,-1,-1,-1,-1,-1,-1,-1,-1,-1,-1,-1,-1,-1,-1,-1,-1,-1,-1],"split_conditions":[9.01051E5,4.5E0,1.833E3,3.05E1,3.0885E3,7.5585E3,9.066985E5,1.55E1,3.1495E3,3.815E2,3.4695E3,4.565E2,2.715E2,7.911854E-2,2.2537827E-3,6.5E0,1.95E1,3.124E3,1.8E1,5.25E1,7.03164E5,5.4602392E-2,-5.5499297E-2,1.25E1,1.03E3,9.03704E5,-4.7405466E-2,-5.446267E-2,-5.843404E-2,-4.919217E-2,-5.485518E-2,-5.7644695E-2,-1.6772017E-2,7.529498E-3,-6.3278936E-2,-5.7006437E-2,-2.2777066E-2,-6.079146E-2,-5.5091083E-2,-4.819829E-2,6.441271E-2,-6.400832E-2,-1.5015758E-2,4.3806294E-3,6.6525206E-2],"split_indices":[3,12,0,11,7,2,3,11,25,7,24,0,14,0,0,11,11,25,8,12,3,0,0,18,27,3,0,0,0,0,0,0,0,0,0,0,0,0,0,0,0,0,0,0,0],"sum_hessian":[2.5062854E4,2.5011674E4,5.1179813E1,2.0950146E4,4.0615276E3,4.849167E1,2.688141E0,1.7338025E4,3.6121216E3,4.05507E3,6.457439E0,4.214363E1,6.3480406E0,1.3936198E0,1.2945215E0,1.249232E4,4.8457046E3,3.2259714E3,3.861502E2,1.2871508E3,2.7679192E3,1.8463463E0,4.6110926E0,1.7290718E1,2.4852911E1,4.3118215E0,2.036219E0,7.6782E3,4.8141196E3,2.1954626E3,2.650242E3,3.210551E3,1.5420447E1,1.2043173E0,3.849459E2,1.2690963E3,1.8054462E1,2.2721042E3,4.9581494E2,1.2193108E1,5.0976105E0,2.0868156E1,3.9847548E0,1.2485846E0,3.0632367E0],"tree_param":{"num_deleted":"0","num_feature":"28","num_nodes":"45","size_leaf_vector":"0"}},{"base_weights":[9.193973E-2,1.4128625E-1,-1.4682402E-1,1.1098014E-2,2.309567E-1,-1.9585916E-1,1.262203E-1,2.8915447E-1,-1.7437272E-2,6.123916E-2,2.8791943E-1,-2.5864485E-1,-6.3846804E-2,1.7764547E-1,-2.592412E-1,9.2639536E-2,3.6329347E-1,-2.3821022E-1,9.4008325E-3,1.1252647E-1,-1.1014664E-1,5.597434E-1,2.5127298E-1,-2.876173E-1,-6.59243E-2,-5.5407854E-3,-2.8208917E-1,2.7258407E-2,3.4103373E-1,-3.9871013E-1,9.1596134E-2,2.4177136E-1,-2.5247374E-1,2.2220857E-1,4.9174145E-1,1.0976964E-1,-3.3242127E-1,-1.1582887E-1,9.279791E-2,6.5862626E-2,3.8513482E-1,7.8281873E-1,-1.3643101E-1,6.463286E-1,3.7023067E-1,1.95731E-1,4.0606776E-1,1.354515E0,-2.9088715E-1,-1.3655667E-1,3.523448E-1,-2.2752615E-2,6.1426264E-1,-3.6066744E-1,-8.641465E-3,3.3277044E-1,-7.3734105E-2,4.9992418E-1,1.6415551E-1,-4.5511937E-1,2.2739524E-1,-1.1018803E-1,9.8411304E-1],"default_left":[true,true,true,false,false,true,true,false,true,true,false,false,true,false,false,true,true,true,false,true,true,true,true,true,true,true,true,false,true,true,true,false,false,false,false,false,false,false,false,false,false,false,false,false,false,false,false,false,false,false,false,false,false,false,false,false,false,false,false,false,false,false,false],"id":13,"leaf_child_counts":[0,0,0,0,0,0,0,0,0,0,0,0,0,0,0,0,0,0,0,0,0,0,0,0,0,0,0,0,0,0,0,0,0,0,0,0,0,0,0,0,0,0,0,0,0,0,0,0,0,0,0,0,0,0,0,0,0,0,0,0,0,0,0],"left_children":[1,3,5,7,9,11,13,15,17,19,21,23,25,27,29,31,33,35,37,39,41,43,45,47,49,51,53,55,57,59,61,-1,-1,-1,-1,-1,-1,-1,-1,-1,-1,-1,-1,-1,-1,-1,-1,-1,-1,-1,-1,-1,-1,-1,-1,-1,-1,-1,-1,-1,-1,-1,-1],"loss_changes":[3.4701752E2,2.8492886E2,6.7567856E1,7.899757E1,1.3970398E2,3.543425E1,1.5282566E1,1.3467209E1,5.3506252E1,3.1946861E1,1.0764673E2,1.6163498E1,1.7557323E1,1.6669014E1,4.4835134E0,1.3194351E1,1.2077461E1,3.212454E1,8.410661E1,3.555239E1,1.9759008E1,2.084085E1,8.191461E1,1.3920761E1,1.1276292E1,1.1641846E1,6.247654E0,1.096344E1,9.058411E0,2.406869E0,4.9107146E0,0E0,0E0,0E0,0E0,0E0,0E0,0E0,0E0,0E0,0E0,0E0,0E0,0E0,0E0,0E0,0E0,0E0,0E0,0E0,0E0,0E0,0E0,0E0,0E0,0E0,0E0,0E0,0E0,0E0,0E0,0E0,0E0],"parents":[2147483647,0,0,1,1,2,2,3,3,4,4,5,5,6,6,7,7,8,8,9,9,10,10,11,11,12,12,13,13,14,14,15,15,16,16,17,17,18,18,19,19,20,20,21,21,22,22,23,23,24,24,25,25,26,26,27,27,28,28,29,29,30,30],"right_children":[2,4,6,8,10,12,14,16,18,20,22,24,26,28,30,32,34,36,38,40,42,44,46,48,50,52,54,56,58,60,62,-1,-1,-1,-1,-1,-1,-1,-1,-1,-1,-1,-1,-1,-1,-1,-1,-1,-1,-1,-1,-1,-1,-1,-1,-1,-1,-1,-1,-1,-1,-1,-1],"split_conditions":[1.5E0,5.695E2,1.5E0,2.85E1,2.85E1,1.7745E3,3.55E1,2.45E1,3.45E1,1.25E1,3.25E1,3.95E1,2.3115E3,3.05E1,3.45E1,1.5E0,1.5E0,1.35E1,3.15E1,1.5E0,4.241255E5,6.794585E5,2.5805E3,6E0,3.45E1,4.05E1,1.5E0,2.55E1,5.5E0,8.267825E5,2.9E1,2.4177136E-2,-2.5247375E-2,2.2220857E-2,4.9174145E-2,1.0976965E-2,-3.324213E-2,-1.1582888E-2,9.279791E-3,6.5862625E-3,3.851348E-2,7.828187E-2,-1.3643101E-2,6.463286E-2,3.7023067E-2,1.95731E-2,4.0606778E-2,1.354515E-1,-2.9088715E-2,-1.3655667E-2,3.523448E-2,-2.2752616E-3,6.1426263E-2,-3.6066744E-2,-8.6414645E-4,3.3277046E-2,-7.3734107E-3,4.999242E-2,1.6415551E-2,-4.551194E-2,2.2739524E-2,-1.1018803E-2,9.841131E-2],"split_indices":[12,25,17,23,22,25,23,22,8,10,23,22,0,22,22,10,17,9,22,17,3,3,25,8,10,22,5,23,11,3,17,0,0,0,0,0,0,0,0,0,0,0,0,0,0,0,0,0,0,0,0,0,0,0,0,0,0,0,0,0,0,0,0],"sum_hessian":[2.9450035E4,2.4406275E4,5.0437607E3,9.954678E3,1.4451597E4,4.2761104E3,7.6765027E2,9.256576E2,9.0290205E3,3.6320796E3,1.0819518E4,2.89722E3,1.3788903E3,6.7776715E2,8.988311E1,2.5417737E2,6.7148016E2,9.7778516E2,8.051235E3,2.7957832E3,8.3629645E2,1.2836693E3,9.535848E3,2.5181624E3,3.7905783E2,1.0889814E3,2.8990884E2,3.535327E2,3.2423444E2,6.421798E1,2.5665129E1,1.7769185E2,7.648552E1,3.2130014E2,3.5018005E2,2.0828699E2,7.6949817E2,3.2182688E3,4.8329663E3,2.3882202E3,4.0756296E2,2.3089466E1,8.13207E2,8.794519E2,4.042174E2,7.019458E3,2.51639E3,4.183045E0,2.5139792E3,3.2487094E2,5.4186863E1,1.060495E3,2.8486464E1,2.2494844E2,6.496042E1,8.726195E1,2.6627075E2,1.6984003E2,1.543944E2,5.9160942E1,5.057038E0,2.1647507E1,4.017622E0],"tree_param":{"num_deleted":"0","num_feature":"28","num_nodes":"63","size_leaf_vector":"0"}},{"base_weights":[3.628201E-1,3.133142E-1,5.7623327E-1,4.2660913E-1,2.2941305E-1,2.2970913E-1,6.0196686E-1,1.4778855E-1,4.5236224E-1,3.872234E-1,1.725927E-1,-8.824344E-3,3.2066557E-1,6.8636835E-1,5.300201E-1,2.0345765E-1,-1.2750842E-1,6.359942E-1,4.2604393E-1,1.132695E-1,4.2256626E-1,-1.17022306E-1,2.0830259E-1,-1.2451793E-1,3.7463197E-1,4.519732E-1,1.2622286E-2,7.138896E-1,5.0932294E-1,5.476153E-1,2.2309016E-1,-5.608729E-2,2.783834E-1,-3.8128412E-1,9.150099E-2,6.850471E-1,1.000199E-1,5.634714E-1,3.6404434E-1,-1.422932E-1,2.0994894E-1,4.5061518E-2,4.4244432E-1,-2.0750064E-1,6.417743E-2,2.615842E-1,5.4547533E-2,-4.1948646E-2,-6.431807E-1,8.760607E-1,1.4616784E-1,1.7724471E-1,5.5220556E-1,4.0253827E-1,-2.0764315E-1,7.508167E-1,5.9400713E-1,5.8990204E-1,2.2967611E-1,4.7721228E-1,6.195578E-1,4.2543235E-1,-2.720774E-2],"default_left":[true,true,false,false,false,true,true,true,true,false,false,true,false,false,true,false,true,true,false,true,true,true,true,true,true,false,true,true,true,true,false,false,false,false,false,false,false,false,false,false,false,false,false,false,false,false,false,false,false,false,false,false,false,false,false,false,false,false,false,false,false,false,false],"id":14,"leaf_child_counts":[0,0,0,0,0,0,0,0,0,0,0,0,0,0,0,0,0,0,0,0,0,0,0,0,0,0,0,0,0,0,0,0,0,0,0,0,0,0,0,0,0,0,0,0,0,0,0,0,0,0,0,0,0,0,0,0,0,0,0,0,0,0,0],"left_children":[1,3,5,7,9,11,13,15,17,19,21,23,25,27,29,31,33,35,37,39,41,43,45,47,49,51,53,55,57,59,61,-1,-1,-1,-1,-1,-1,-1,-1,-1,-1,-1,-1,-1,-1,-1,-1,-1,-1,-1,-1,-1,-1,-1,-1,-1,-1,-1,-1,-1,-1,-1,-1],"loss_changes":[3.2946973E2,2.4066553E2,5.2240723E1,7.7306274E1,1.3043854E2,8.847635E0,3.2835083E1,1.4012016E1,4.739978E1,3.725049E1,1.1071622E2,5.082369E0,1.1932903E1,1.1878296E1,1.584021E1,1.4784992E1,8.600521E0,3.2386627E1,7.332971E1,1.0939615E1,2.558142E1,1.9284834E1,7.804651E1,3.7395978E0,2.9145174E0,5.59988E0,7.748075E0,9.168945E0,7.5597687E0,1.3859924E1,8.213257E0,0E0,0E0,0E0,0E0,0E0,0E0,0E0,0E0,0E0,0E0,0E0,0E0,0E0,0E0,0E0,0E0,0E0,0E0,0E0,0E0,0E0,0E0,0E0,0E0,0E0,0E0,0E0,0E0,0E0,0E0,0E0,0E0],"parents":[2147483647,0,0,1,1,2,2,3,3,4,4,5,5,6,6,7,7,8,8,9,9,10,10,11,11,12,12,13,13,14,14,15,15,16,16,17,17,18,18,19,19,20,20,21,21,22,22,23,23,24,24,25,25,26,26,27,27,28,28,29,29,30,30],"right_children":[2,4,6,8,10,12,14,16,18,20,22,24,26,28,30,32,34,36,38,40,42,44,46,48,50,52,54,56,58,60,62,-1,-1,-1,-1,-1,-1,-1,-1,-1,-1,-1,-1,-1,-1,-1,-1,-1,-1,-1,-1,-1,-1,-1,-1,-1,-1,-1,-1,-1,-1,-1,-1],"split_conditions":[1.5E0,5.735E2,2.95E1,2.85E1,2.85E1,3.855E2,8.7E2,2.85E1,4.45E1,2.75E1,3.25E1,1.5E0,3.05E1,3.95E1,1.5E0,2.15E1,2.582E3,8.3524E5,2.85E1,6.598645E5,5.040005E5,6.783615E5,2.5805E3,2.0189E4,5.715E2,2.35E1,1.25E1,6.846905E5,1.25E1,1.0305E3,3.25E1,-5.608729E-3,2.783834E-2,-3.8128413E-2,9.150099E-3,6.850471E-2,1.000199E-2,5.634714E-2,3.6404435E-2,-1.422932E-2,2.0994894E-2,4.5061517E-3,4.4244435E-2,-2.0750064E-2,6.4177434E-3,2.615842E-2,5.4547535E-3,-4.1948645E-3,-6.4318076E-2,8.760607E-2,1.4616785E-2,1.7724471E-2,5.5220556E-2,4.025383E-2,-2.0764316E-2,7.508167E-2,5.9400715E-2,5.8990207E-2,2.2967612E-2,4.772123E-2,6.195578E-2,4.2543236E-2,-2.720774E-3],"split_indices":[12,25,23,23,22,7,25,22,8,23,23,5,22,22,19,23,2,3,22,3,3,3,25,1,27,23,12,3,9,0,22,0,0,0,0,0,0,0,0,0,0,0,0,0,0,0,0,0,0,0,0,0,0,0,0,0,0,0,0,0,0,0,0],"sum_hessian":[3.1200516E4,2.5327672E4,5.8728447E3,1.0774443E4,1.4553229E4,4.0666696E2,5.4661777E3,9.115994E2,9.862844E3,3.8512156E3,1.0702013E4,1.1251061E2,2.9415634E2,2.5114404E3,2.954737E3,7.584838E2,1.5311563E2,1.2334531E3,8.629391E3,4.40553E2,3.4106626E3,1.1744762E3,9.527536E3,8.695152E1,2.5559093E1,2.0591504E2,8.82413E1,2.1709407E3,3.4049997E2,2.7937952E3,1.609419E2,1.6996649E2,5.8851733E2,7.058489E1,8.253073E1,1.1297766E3,1.0367645E2,2.6802646E3,5.9491265E3,1.2078851E2,3.197645E2,1.7077307E2,3.2398894E3,7.832377E2,3.9123862E2,7.075071E3,2.4524653E3,7.5942604E1,1.1008916E1,7.1130147E0,1.8446077E1,5.5784042E1,1.50131E2,3.1554935E1,5.6686363E1,1.655682E3,5.1525854E2,2.634721E2,7.702785E1,1.4158636E3,1.3779316E3,8.860966E1,7.233224E1],"tree_param":{"num_deleted":"0","num_feature":"28","num_nodes":"63","size_leaf_vector":"0"}},{"base_weights":[-5.415292E-1,-5.421271E-1,-2.4865578E-1,-5.3688467E-1,-5.691657E-1,-3.022829E-1,5.164055E-1,-5.31371E-1,-5.6323653E-1,-5.697266E-1,-1.928699E-1,-6.0079426E-2,-4.70255E-1,2.1289164E-2,7.7375484E-1,-5.418979E-1,-5.0419253E-1,-5.56911E-1,-6.146463E-1,-5.469485E-1,-5.8013684E-1,5.3365827E-1,-5.4006267E-1,-3.1313893E-1,5.421727E-1,-5.540453E-1,1.0920461E-1,-5.262111E-1,-5.66869E-1,-4.7259527E-1,-5.302681E-1,-5.588547E-1,-1.5124395E-1,-6.171428E-1,9.227581E-2,-5.5168223E-1,-2.0828556E-1,-5.8077425E-1,1.4864177E-2,-5.3510636E-1,4.527832E-1,-3.883041E-1,8.302599E-1,-6.2527764E-1,-1.3788308E-1,5.4283243E-1,-4.1564026E-1],"default_left":[true,true,true,true,true,true,true,true,true,true,true,true,true,false,false,true,true,true,true,true,true,false,false,true,true,true,true,false,false,false,false,false,false,false,false,false,false,false,false,false,false,false,false,false,false,false,false],"id":15,"leaf_child_counts":[0,0,0,0,0,0,0,0,0,0,0,0,0,0,0,0,0,0,0,0,0,0,0,0,0,0,0,0,0,0,0,0,0,0,0,0,0,0,0,0,0,0,0,0,0,0,0],"left_children":[1,3,5,7,9,11,13,15,17,19,21,23,25,-1,-1,27,29,31,33,35,37,-1,-1,39,41,43,45,-1,-1,-1,-1,-1,-1,-1,-1,-1,-1,-1,-1,-1,-1,-1,-1,-1,-1,-1,-1],"loss_changes":[4.07959E0,3.0986328E0,2.2436707E0,2.6264648E0,7.0996094E-1,1.9318495E0,4.5524842E-1,4.4960938E0,7.8515625E-1,6.0217285E-1,2.127768E0,3.3514774E0,1.4346962E0,0E0,0E0,4.403076E0,3.5957031E0,2.3583374E0,7.1035767E-1,1.8630676E0,1.0117188E0,0E0,0E0,2.8491697E0,2.0762506E0,6.5168524E-1,1.2294955E0,0E0,0E0,0E0,0E0,0E0,0E0,0E0,0E0,0E0,0E0,0E0,0E0,0E0,0E0,0E0,0E0,0E0,0E0,0E0,0E0],"parents":[2147483647,0,0,1,1,2,2,3,3,4,4,5,5,6,6,7,7,8,8,9,9,10,10,11,11,12,12,15,15,16,16,17,17,18,18,19,19,20,20,23,23,24,24,25,25,26,26],"right_children":[2,4,6,8,10,12,14,16,18,20,22,24,26,-1,-1,28,30,32,34,36,38,-1,-1,40,42,44,46,-1,-1,-1,-1,-1,-1,-1,-1,-1,-1,-1,-1,-1,-1,-1,-1,-1,-1,-1,-1],"split_conditions":[9.01051E5,4.5E0,1.833E3,3.05E1,3.0885E3,4.565E2,1.33605E4,1.55E1,3.1495E3,3.815E2,3.4695E3,1.25E1,7.5585E3,2.1289166E-3,7.737549E-2,6.5E0,1.95E1,3.124E3,4.7795E3,5.25E1,4.7845E3,5.3365827E-2,-5.4006267E-2,2.63845E4,3.875E2,1.03E3,9.07061E5,-5.2621108E-2,-5.6686904E-2,-4.725953E-2,-5.3026807E-2,-5.588547E-2,-1.51243955E-2,-6.171428E-2,9.227581E-3,-5.5168223E-2,-2.0828556E-2,-5.8077425E-2,1.4864177E-3,-5.3510636E-2,4.5278322E-2,-3.883041E-2,8.302599E-2,-6.252777E-2,-1.3788308E-2,5.4283243E-2,-4.156403E-2],"split_indices":[3,12,0,11,7,0,4,11,25,7,24,18,2,0,0,11,11,25,0,12,0,0,0,1,8,27,3,0,0,0,0,0,0,0,0,0,0,0,0,0,0,0,0,0,0,0,0],"sum_hessian":[2.4067424E4,2.4017543E4,4.9881546E1,2.0134578E4,3.8829644E3,4.7179386E1,2.702158E0,1.6668213E4,3.4663655E3,3.8766716E3,6.2927394E0,1.987654E1,2.7302847E1,1.2944603E0,1.4076977E0,1.2000998E4,4.6672153E3,3.097123E3,3.6924246E2,1.2327944E3,2.6438772E3,1.8611244E0,4.431615E0,1.4333725E1,5.5428147E0,2.3891914E1,3.410933E0,7.384285E3,4.616713E3,2.118831E3,2.548384E3,3.0819788E3,1.514431E1,3.6806964E2,1.172838E0,1.2151798E3,1.7614592E1,2.641072E3,2.8053107E0,1.1346746E1,2.9869776E0,1.2281647E0,4.31465E0,1.9971085E1,3.9208305E0,1.8490076E0,1.5619255E0],"tree_param":{"num_deleted":"0","num_feature":"28","num_nodes":"47","size_leaf_vector":"0"}},{"base_weights":[8.743078E-2,1.3227525E-1,-1.3324276E-1,4.6547487E-2,2.4639294E-1,-1.66185E-1,2.305772E-1,1.5064475E-2,2.706938E-1,2.9848573E-1,9.6202694E-2,-2.0132591E-1,5.4123648E-2,3.9977443E-1,1.0574834E-1,7.960619E-2,-9.1085285E-2,7.0777875E-1,2.1592659E-1,3.9027E-1,1.845837E-1,7.674506E-2,6.2289304E-1,-1.24653235E-1,-2.800986E-1,2.4264243E-1,-3.8371034E-2,8.7759554E-1,3.4704685E-1,2.1769466E-1,-1.800716E-1,-2.1758603E-1,1.1669342E-1,9.759797E-2,-1.2835495E-1,1.1295592E0,6.05979E-1,4.0793875E-1,7.772752E-2,2.6722926E-1,4.6568874E-1,3.019753E-1,8.276876E-2,1.3142201E-1,-1.1878281E-1,-1.9877692E-1,7.2369254E-1,-1.9745243E-1,-2.4355168E-2,-3.0735692E-1,-9.049551E-2,-4.0858465E-1,3.0024272E-1,-8.867109E-2,3.7140596E-1,3.825458E-1,9.539913E-1,4.0069693E-1,-1.6666459E-1,1.0722694E-1,5.110385E-1,-4.7727433E-1,-1.0497754E-2],"default_left":[true,true,true,true,true,true,true,true,true,true,true,true,true,true,true,true,true,true,true,false,true,true,true,false,true,false,true,true,true,true,true,false,false,false,false,false,false,false,false,false,false,false,false,false,false,false,false,false,false,false,false,false,false,false,false,false,false,false,false,false,false,false,false],"id":16,"leaf_child_counts":[0,0,0,0,0,0,0,0,0,0,0,0,0,0,0,0,0,0,0,0,0,0,0,0,0,0,0,0,0,0,0,0,0,0,0,0,0,0,0,0,0,0,0,0,0,0,0,0,0,0,0,0,0,0,0,0,0,0,0,0,0,0,0],"left_children":[1,3,5,7,9,11,13,15,17,19,21,23,25,27,29,31,33,35,37,39,41,43,45,47,49,51,53,55,57,59,61,-1,-1,-1,-1,-1,-1,-1,-1,-1,-1,-1,-1,-1,-1,-1,-1,-1,-1,-1,-1,-1,-1,-1,-1,-1,-1,-1,-1,-1,-1,-1,-1],"loss_changes":[2.9150592E2,2.3948639E2,5.966768E1,9.865385E1,8.213196E1,3.533542E1,8.691294E0,8.400006E1,4.1062744E1,8.143591E1,2.7681885E1,2.3733368E1,1.0967932E1,4.1093616E0,7.6963596E0,8.4064606E1,3.2614494E1,7.5284424E0,4.060778E1,3.9931274E1,4.1580315E1,2.7924812E1,8.116482E0,1.4569597E1,1.0000092E1,7.8872547E0,8.740897E0,2.6881123E-1,4.4609947E0,5.5322723E0,3.4169397E0,0E0,0E0,0E0,0E0,0E0,0E0,0E0,0E0,0E0,0E0,0E0,0E0,0E0,0E0,0E0,0E0,0E0,0E0,0E0,0E0,0E0,0E0,0E0,0E0,0E0,0E0,0E0,0E0,0E0,0E0,0E0,0E0],"parents":[2147483647,0,0,1,1,2,2,3,3,4,4,5,5,6,6,7,7,8,8,9,9,10,10,11,11,12,12,13,13,14,14,15,15,16,16,17,17,18,18,19,19,20,20,21,21,22,22,23,23,24,24,25,25,26,26,27,27,28,28,29,29,30,30],"right_children":[2,4,6,8,10,12,14,16,18,20,22,24,26,28,30,32,34,36,38,40,42,44,46,48,50,52,54,56,58,60,62,-1,-1,-1,-1,-1,-1,-1,-1,-1,-1,-1,-1,-1,-1,-1,-1,-1,-1,-1,-1,-1,-1,-1,-1,-1,-1,-1,-1,-1,-1,-1,-1],"split_conditions":[1.5E0,1.0245E3,1.5E0,1.5E0,6.924385E5,3.04E3,5.41979E5,2.5E0,1.5E0,1.0135E3,3.45E1,9.5E2,5.315E2,2.65E1,3.05E1,3.5E1,6.62E2,2.15E1,7.05043E5,3.25E1,2.5E0,9.5E0,1.5E0,3.15E1,6.83626E5,2.65E1,3.75E1,3E0,4.05E1,2.85E1,1.35E1,-2.1758603E-2,1.1669342E-2,9.759798E-3,-1.2835495E-2,1.1295592E-1,6.0597904E-2,4.0793877E-2,7.772752E-3,2.6722927E-2,4.6568874E-2,3.0197531E-2,8.276876E-3,1.3142201E-2,-1.1878281E-2,-1.9877693E-2,7.2369255E-2,-1.9745244E-2,-2.4355168E-3,-3.0735692E-2,-9.049552E-3,-4.0858466E-2,3.0024273E-2,-8.867109E-3,3.7140597E-2,3.825458E-2,9.5399134E-2,4.0069696E-2,-1.6666459E-2,1.0722694E-2,5.110385E-2,-4.7727432E-2,-1.0497755E-3],"split_indices":[12,25,19,17,3,25,3,10,11,0,22,0,0,22,23,8,2,23,3,22,10,10,9,22,3,22,22,9,19,22,19,0,0,0,0,0,0,0,0,0,0,0,0,0,0,0,0,0,0,0,0,0,0,0,0,0,0,0,0,0,0,0,0],"sum_hessian":[2.94542E4,2.4479887E4,4.9743125E3,1.3979546E4,1.0500341E4,4.5618047E3,4.1250757E2,1.2258777E4,1.7207689E3,7.7955156E3,2.704825E3,3.9343347E3,6.2747E2,1.7419508E2,2.3831248E2,7.6236543E3,4.635123E3,1.902781E2,1.5304907E3,4.3155454E3,3.47997E3,2.609565E3,9.5259995E1,1.995052E3,1.9392828E3,2.0599544E2,4.2147458E2,1.5757312E1,1.5843777E2,1.7141371E2,6.689878E1,8.4527997E2,6.778374E3,7.6427045E2,3.8708525E3,3.503284E1,1.5524525E2,6.397198E2,8.90771E2,1.6417239E3,2.6738218E3,1.6154296E3,1.8645404E3,2.0395562E3,5.700087E2,1.0302977E1,8.4957016E1,1.1554354E3,8.3961646E2,1.6949822E3,2.4430067E2,1.6244314E1,1.8975113E2,3.7609283E2,4.5381718E1,2.9096968E0,1.2847615E1,1.4365498E2,1.4782794E1,1.25513306E2,4.59004E1,2.3644253E1,4.3254528E1],"tree_param":{"num_deleted":"0","num_feature":"28","num_nodes":"63","size_leaf_vector":"0"}},{"base_weights":[3.3257362E-1,2.2977528E-1,4.2158607E-1,3.460917E-1,1.4750364E-1,4.5856342E-1,2.1026164E-1,5.7533616E-1,2.9141584E-1,5.392628E-2,2.5826418E-1,4.9646288E-1,2.7397898E-1,1.2543657E-1,4.3786412E-1,9.1523744E-2,6.602379E-1,3.1770337E-1,1.7993636E-2,1.1607709E-1,-1.8455154E-1,2.835649E-1,-8.5568145E-2,4.4407073E-1,6.033532E-1,2.1394655E-1,4.9957702E-1,-6.849819E-3,2.7696714E-1,-4.0509965E-2,5.1167953E-1,2.4826716E-1,-3.161024E-1,1.5962847E-1,6.9608325E-1,3.974963E-1,2.5414124E-1,2.5806436E-1,-1.4771993E-1,2.4468818E-1,2.1458581E-2,-3.443524E-2,-3.0488265E-1,6.329859E-2,3.1329063E-1,-3.824962E-1,7.4206464E-2,3.4808576E-1,5.079421E-1,-7.619692E-1,6.054463E-1,1.2137539E-1,3.6819574E-1,2.8571084E-1,5.7066274E-1,-1.2193311E-1,1.500803E-1,9.8900445E-2,4.307933E-1,4.6013132E-1,-2.0334885E-1,3.2379487E-1,6.5958536E-1],"default_left":[true,true,true,true,true,true,true,true,true,true,true,true,true,true,false,true,true,false,true,false,false,false,true,true,true,true,true,true,true,true,true,false,false,false,false,false,false,false,false,false,false,false,false,false,false,false,false,false,false,false,false,false,false,false,false,false,false,false,false,false,false,false,false],"id":17,"leaf_child_counts":[0,0,0,0,0,0,0,0,0,0,0,0,0,0,0,0,0,0,0,0,0,0,0,0,0,0,0,0,0,0,0,0,0,0,0,0,0,0,0,0,0,0,0,0,0,0,0,0,0,0,0,0,0,0,0,0,0,0,0,0,0,0,0],"left_children":[1,3,5,7,9,11,13,15,17,19,21,23,25,27,29,31,33,35,37,39,41,43,45,47,49,51,53,55,57,59,61,-1,-1,-1,-1,-1,-1,-1,-1,-1,-1,-1,-1,-1,-1,-1,-1,-1,-1,-1,-1,-1,-1,-1,-1,-1,-1,-1,-1,-1,-1,-1,-1],"loss_changes":[2.8765405E2,1.396225E2,1.3159204E2,7.5613464E1,8.86109E1,1.00194824E2,4.8433624E1,4.772287E1,3.5096344E1,6.8736E1,3.4086365E1,6.6361084E1,3.301068E1,3.6705906E1,2.408493E1,1.1248404E1,1.7644135E1,2.2495392E1,1.7121305E1,4.4755653E1,1.7309639E1,2.3861816E1,1.2796954E1,4.8794678E1,1.1636719E1,2.7558533E1,7.639038E0,1.7691362E1,2.3335E1,7.59589E0,1.6194855E1,0E0,0E0,0E0,0E0,0E0,0E0,0E0,0E0,0E0,0E0,0E0,0E0,0E0,0E0,0E0,0E0,0E0,0E0,0E0,0E0,0E0,0E0,0E0,0E0,0E0,0E0,0E0,0E0,0E0,0E0,0E0,0E0],"parents":[2147483647,0,0,1,1,2,2,3,3,4,4,5,5,6,6,7,7,8,8,9,9,10,10,11,11,12,12,13,13,14,14,15,15,16,16,17,17,18,18,19,19,20,20,21,21,22,22,23,23,24,24,25,25,26,26,27,27,28,28,29,29,30,30],"right_children":[2,4,6,8,10,12,14,16,18,20,22,24,26,28,30,32,34,36,38,40,42,44,46,48,50,52,54,56,58,60,62,-1,-1,-1,-1,-1,-1,-1,-1,-1,-1,-1,-1,-1,-1,-1,-1,-1,-1,-1,-1,-1,-1,-1,-1,-1,-1,-1,-1,-1,-1,-1,-1],"split_conditions":[2.5E0,4.365E2,1.5E0,4.45E1,6.650015E5,2.5285E3,7.435185E5,1.25E1,1.5E0,1.5E0,3.15E1,2.5E0,2.3515E3,2.85E1,2.35E1,8.431725E5,2.52892E5,3.35E1,6.744E3,3.45E1,3.35E1,2.85E1,2E0,1.6635E3,6.5E0,1.5E0,8.119E3,1.45E1,5.329375E5,4.3E2,7.425E2,2.4826717E-2,-3.161024E-2,1.5962847E-2,6.960832E-2,3.9749634E-2,2.5414124E-2,2.5806436E-2,-1.4771993E-2,2.4468819E-2,2.1458582E-3,-3.443524E-3,-3.0488266E-2,6.329859E-3,3.132906E-2,-3.8249623E-2,7.4206465E-3,3.4808576E-2,5.079421E-2,-7.6196924E-2,6.054463E-2,1.2137539E-2,3.6819573E-2,2.8571084E-2,5.7066273E-2,-1.2193311E-2,1.50080295E-2,9.890045E-3,4.3079328E-2,4.601313E-2,-2.0334885E-2,3.237949E-2,6.595854E-2],"split_indices":[10,25,17,8,3,25,3,9,17,18,22,12,0,23,23,3,3,22,4,22,22,23,11,2,8,12,4,18,3,14,27,0,0,0,0,0,0,0,0,0,0,0,0,0,0,0,0,0,0,0,0,0,0,0,0,0,0,0,0,0,0,0,0],"sum_hessian":[3.1446062E4,1.4594641E4,1.6851422E4,6.0449824E3,8.549658E3,1.4340895E4,2.510527E3,1.1622759E3,4.8827065E3,4.6351143E3,3.9145444E3,1.1896566E4,2.4443289E3,1.830041E3,6.804861E2,1.7382317E2,9.884527E2,4.454297E3,4.284094E2,3.6772756E3,9.5783856E2,3.6464014E3,2.681431E2,7.986935E3,3.909631E3,1.9321305E3,5.121983E2,9.775732E2,8.524678E2,9.1026085E1,5.8945996E2,1.2582929E2,4.7993866E1,6.64117E1,9.22041E2,1.9726584E3,2.4816387E3,1.7472559E2,2.536838E2,1.5579845E3,2.1192913E3,4.2674673E2,5.3109186E2,4.3395374E2,3.2124475E3,9.332053E1,1.7482257E2,3.193796E3,4.793139E3,5.4286637E0,3.9042024E3,1.2085924E3,7.2353815E2,1.29028E2,3.831703E2,5.6411066E2,4.134625E2,3.9586438E2,4.5660342E2,2.1892582E1,6.913351E1,2.6104453E2,3.2841547E2],"tree_param":{"num_deleted":"0","num_feature":"28","num_nodes":"63","size_leaf_vector":"0"}},{"base_weights":[-5.246873E-1,-5.2529275E-1,-2.3251802E-1,-5.199851E-1,-5.528057E-1,-2.8622282E-1,5.079973E-1,-5.143134E-1,-5.4714525E-1,-5.53379E-1,-1.773002E-1,-4.9109235E-2,-4.5389274E-1,7.5645685E-1,2.364372E-2,-5.2508485E-1,-4.8658565E-1,-5.406151E-1,-6.00468E-1,-5.2968675E-1,-5.6409127E-1,5.224254E-1,-5.2622885E-1,-2.9757828E-1,5.2489495E-1,-5.388772E-1,1.14625424E-1,-5.090077E-1,-5.5075794E-1,-4.544494E-1,-5.132178E-1,-5.4260665E-1,-1.3561265E-1,1.014079E-1,-6.030559E-1,-5.3457826E-1,-1.9110125E-1,-5.747859E-1,-5.1398957E-1,-5.197379E-1,4.3551207E-1,-3.7666288E-1,7.9605097E-1,-5.76488E-1,1.2341537E-1,5.286173E-1,-4.0323392E-1],"default_left":[true,true,true,true,true,true,true,true,true,true,true,true,true,false,false,true,true,true,true,true,true,false,false,true,true,true,true,false,false,false,false,false,false,false,false,false,false,false,false,false,false,false,false,false,false,false,false],"id":18,"leaf_child_counts":[0,0,0,0,0,0,0,0,0,0,0,0,0,0,0,0,0,0,0,0,0,0,0,0,0,0,0,0,0,0,0,0,0,0,0,0,0,0,0,0,0,0,0,0,0,0,0],"left_children":[1,3,5,7,9,11,13,15,17,19,21,23,25,-1,-1,27,29,31,33,35,37,-1,-1,39,41,43,45,-1,-1,-1,-1,-1,-1,-1,-1,-1,-1,-1,-1,-1,-1,-1,-1,-1,-1,-1,-1],"loss_changes":[3.9643555E0,3.0786133E0,2.1166153E0,2.697754E0,7.0092773E-1,1.8404877E0,4.288295E-1,4.527832E0,8.33313E-1,6.418457E-1,2.0156076E0,3.0841434E0,1.3819785E0,0E0,0E0,4.475586E0,3.6136475E0,2.3240967E0,7.0376587E-1,1.8360596E0,1.0637207E0,0E0,0E0,2.6637025E0,1.9044304E0,6.6764975E-1,1.1517661E0,0E0,0E0,0E0,0E0,0E0,0E0,0E0,0E0,0E0,0E0,0E0,0E0,0E0,0E0,0E0,0E0,0E0,0E0,0E0,0E0],"parents":[2147483647,0,0,1,1,2,2,3,3,4,4,5,5,6,6,7,7,8,8,9,9,10,10,11,11,12,12,15,15,16,16,17,17,18,18,19,19,20,20,23,23,24,24,25,25,26,26],"right_children":[2,4,6,8,10,12,14,16,18,20,22,24,26,-1,-1,28,30,32,34,36,38,-1,-1,40,42,44,46,-1,-1,-1,-1,-1,-1,-1,-1,-1,-1,-1,-1,-1,-1,-1,-1,-1,-1,-1,-1],"split_conditions":[9.01051E5,4.5E0,1.833E3,3.05E1,3.0885E3,4.565E2,9.066985E5,1.55E1,3.1495E3,3.795E2,3.4695E3,1.25E1,7.5585E3,7.5645685E-2,2.3643721E-3,6.5E0,1.95E1,3.124E3,1.8E1,5.25E1,7.03164E5,5.2242544E-2,-5.2622885E-2,2.63845E4,3.875E2,2.7E1,9.07061E5,-5.090077E-2,-5.5075794E-2,-4.544494E-2,-5.1321782E-2,-5.4260667E-2,-1.3561266E-2,1.0140791E-2,-6.030559E-2,-5.3457826E-2,-1.9110126E-2,-5.7478588E-2,-5.139896E-2,-5.197379E-2,4.3551207E-2,-3.7666287E-2,7.9605095E-2,-5.7648804E-2,1.23415375E-2,5.286173E-2,-4.032339E-2],"split_indices":[3,12,0,11,7,0,3,11,25,7,24,18,2,0,0,11,11,25,8,12,3,0,0,1,8,10,3,0,0,0,0,0,0,0,0,0,0,0,0,0,0,0,0,0,0,0,0],"sum_hessian":[2.309948E4,2.3050914E4,4.8566345E1,1.9339836E4,3.711078E3,4.585431E1,2.7120357E0,1.6015396E4,3.3244392E3,3.7049482E3,6.1294765E0,1.9529373E1,2.6324936E1,1.4212091E0,1.2908266E0,1.1521631E4,4.4937656E3,2.971656E3,3.527831E2,1.169288E3,2.5356604E3,1.8740716E0,4.255405E0,1.3965643E1,5.5637293E0,2.2946878E1,3.3780568E0,7.097695E3,4.423936E3,2.0446316E3,2.449134E3,2.9567766E3,1.48794365E1,1.155708E0,3.516274E2,1.1520653E3,1.7222662E1,2.0809827E3,4.5467764E2,1.0941043E1,3.0246E0,1.1964825E0,4.367247E0,2.1836372E1,1.1105058E0,1.8657488E0,1.5123079E0],"tree_param":{"num_deleted":"0","num_feature":"28","num_nodes":"47","size_leaf_vector":"0"}},{"base_weights":[8.351198E-2,1.2441382E-1,-1.2093355E-1,1.3207454E-2,1.9985601E-1,1.3935347E-1,-1.6179079E-1,2.7272332E-1,-1.0097454E-2,8.8844195E-2,2.6691875E-1,2.0966835E-2,2.9544902E-1,-2.5848585E-1,-8.2551196E-2,1.0285303E-1,3.4109008E-1,4.5730874E-2,-1.0125161E-1,4.832067E-2,3.0899483E-1,5.13148E-1,2.3633352E-1,3.3198416E-1,-7.1855746E-2,1.547357E-1,4.7944206E-1,-3.054862E-1,-1.36759E-1,2.6417002E-2,-1.6668272E-1,2.321633E-1,-2.0910947E-1,2.1542256E-1,4.5904815E-1,-2.0701516E-1,9.149018E-2,1.1191335E-1,-1.4245643E-1,2.1420809E-2,2.5210994E-1,4.1428292E-1,3.129211E-2,5.9720737E-1,3.601304E-1,3.170035E-1,1.4393416E-1,7.2029257E-1,1.5445365E-1,2.2455855E-1,-1.3927032E-1,1.217871E-2,5.7806796E-1,1.3488013E-1,5.809609E-1,-1.5926866E-1,-3.4972468E-1,-1.7198196E-1,4.7250357E-1,-8.923154E-2,1.6324483E-1,-2.1721032E-1,-9.891724E-3],"default_left":[true,true,false,false,false,false,true,false,true,true,false,true,true,true,true,true,true,true,true,true,true,true,true,false,false,true,true,true,true,false,true,false,false,false,false,false,false,false,false,false,false,false,false,false,false,false,false,false,false,false,false,false,false,false,false,false,false,false,false,false,false,false,false],"id":19,"leaf_child_counts":[0,0,0,0,0,0,0,0,0,0,0,0,0,0,0,0,0,0,0,0,0,0,0,0,0,0,0,0,0,0,0,0,0,0,0,0,0,0,0,0,0,0,0,0,0,0,0,0,0,0,0,0,0,0,0,0,0,0,0,0,0,0,0],"left_children":[1,3,5,7,9,11,13,15,17,19,21,23,25,27,29,31,33,35,37,39,41,43,45,47,49,51,53,55,57,59,61,-1,-1,-1,-1,-1,-1,-1,-1,-1,-1,-1,-1,-1,-1,-1,-1,-1,-1,-1,-1,-1,-1,-1,-1,-1,-1,-1,-1,-1,-1,-1,-1],"loss_changes":[2.4623593E2,2.0584854E2,5.222998E1,5.9989777E1,1.08809814E2,1.2312043E1,3.2493576E1,9.4570465E0,4.6325397E1,4.9113987E1,6.850769E1,1.0998777E1,7.3673954E0,1.0890419E1,2.1399832E1,9.568069E0,8.533638E0,6.531279E1,3.0385372E1,2.5496586E1,2.5012634E1,1.2725037E1,6.038916E1,5.924632E0,5.8981814E0,9.911062E0,4.261963E0,8.85611E0,1.1542754E1,1.6118156E1,1.0432442E1,0E0,0E0,0E0,0E0,0E0,0E0,0E0,0E0,0E0,0E0,0E0,0E0,0E0,0E0,0E0,0E0,0E0,0E0,0E0,0E0,0E0,0E0,0E0,0E0,0E0,0E0,0E0,0E0,0E0,0E0,0E0,0E0],"parents":[2147483647,0,0,1,1,2,2,3,3,4,4,5,5,6,6,7,7,8,8,9,9,10,10,11,11,12,12,13,13,14,14,15,15,16,16,17,17,18,18,19,19,20,20,21,21,22,22,23,23,24,24,25,25,26,26,27,27,28,28,29,29,30,30],"right_children":[2,4,6,8,10,12,14,16,18,20,22,24,26,28,30,32,34,36,38,40,42,44,46,48,50,52,54,56,58,60,62,-1,-1,-1,-1,-1,-1,-1,-1,-1,-1,-1,-1,-1,-1,-1,-1,-1,-1,-1,-1,-1,-1,-1,-1,-1,-1,-1,-1,-1,-1,-1,-1],"split_conditions":[1.5E0,5.695E2,3.45E1,2.75E1,3.15E1,3.05E1,8.7E2,2.45E1,2.5E0,1.5E0,3.25E1,3.795E2,1.65E1,6.83626E5,8.075E2,1.5E0,1.5E0,3.5E1,6.62E2,1.5E0,7.31612E5,6.727475E5,1.45E1,2.55E1,2.35E1,1.6067E4,7.045E2,6.5E0,3.45E1,3.25E1,1.5E0,2.321633E-2,-2.0910947E-2,2.1542257E-2,4.5904815E-2,-2.0701516E-2,9.149018E-3,1.11913355E-2,-1.4245643E-2,2.1420808E-3,2.5210995E-2,4.1428294E-2,3.129211E-3,5.9720736E-2,3.601304E-2,3.170035E-2,1.4393416E-2,7.2029255E-2,1.5445366E-2,2.2455854E-2,-1.3927032E-2,1.217871E-3,5.7806797E-2,1.3488012E-2,5.8096092E-2,-1.5926866E-2,-3.497247E-2,-1.7198196E-2,4.7250357E-2,-8.923154E-3,1.6324483E-2,-2.1721033E-2,-9.891725E-4],"split_indices":[12,25,23,23,22,22,25,22,10,17,23,7,12,3,0,10,17,8,2,5,3,3,11,23,23,1,25,10,22,22,5,0,0,0,0,0,0,0,0,0,0,0,0,0,0,0,0,0,0,0,0,0,0,0,0,0,0,0,0,0,0,0,0],"sum_hessian":[2.9443521E4,2.4535322E4,4.9082007E3,9.9175E3,1.4617821E4,6.655849E2,4.2426157E3,8.1633685E2,9.101163E3,5.5059355E3,9.111886E3,3.7915723E2,2.8642767E2,1.909822E3,2.3327937E3,2.3498247E2,5.813544E2,5.644579E3,3.456584E3,4.6510312E3,8.549043E2,1.00502875E3,8.106857E3,8.6557045E1,2.9260016E2,1.6334583E2,1.2308183E2,1.3767365E3,5.330856E2,1.01667267E3,1.316121E3,1.6630421E2,6.867826E1,2.8284726E2,2.9850714E2,8.647442E2,4.779835E3,5.596467E2,2.8969373E3,4.109667E3,5.4136444E2,6.1952576E2,2.3537852E2,6.468064E2,3.5822235E2,4.3268423E3,3.7800142E3,2.6197836E1,6.035921E1,5.378455E1,2.3881561E2,1.2296588E2,4.0379948E1,2.8540854E1,9.4540985E1,3.2085226E2,1.0558842E3,5.0462946E2,2.845614E1,5.5116724E2,4.655054E2,9.950652E2,3.2105582E2],"tree_param":{"num_deleted":"0","num_feature":"28","num_nodes":"63","size_leaf_vector":"0"}},{"base_weights":[3.055199E-1,2.1158053E-1,3.867248E-1,3.1796455E-1,1.3615116E-1,4.2045867E-1,1.9351985E-1,5.290138E-1,2.6786578E-1,4.986088E-2,2.3762724E-1,4.55034E-1,2.5185174E-1,1.1489938E-1,4.0305287E-1,7.143215E-2,6.094001E-1,-3.1188695E-2,2.896444E-1,-2.5604331E-1,9.373837E-2,2.6100042E-1,-8.3245456E-2,4.069213E-1,5.5399173E-1,1.9574012E-1,4.5682633E-1,3.2549365E-3,2.7527374E-1,-4.5944277E-2,4.7177052E-1,2.1981962E-1,-3.1600633E-1,1.3472453E-1,6.433647E-1,1.3132352E-1,-1.6370836E-1,3.8980854E-1,2.2855794E-1,-2.9079744E-1,1.563497E-1,2.2216718E-1,-2.7003116E-5,5.48724E-2,2.8870547E-1,-3.6644903E-1,6.6967994E-2,3.563175E-1,5.115741E-1,4.9931216E-1,6.0538363E-1,1.1253372E-1,3.3428997E-1,2.5936323E-1,5.2294314E-1,-1.0199338E-1,1.5308304E-1,1.0456414E-1,4.3442568E-1,3.0046317E-1,-2.6346937E-1,3.2769808E-1,6.391392E-1],"default_left":[true,true,true,true,true,true,true,true,false,false,true,true,true,true,false,true,true,false,false,true,false,false,true,true,true,true,true,true,true,true,true,false,false,false,false,false,false,false,false,false,false,false,false,false,false,false,false,false,false,false,false,false,false,false,false,false,false,false,false,false,false,false,false],"id":20,"leaf_child_counts":[0,0,0,0,0,0,0,0,0,0,0,0,0,0,0,0,0,0,0,0,0,0,0,0,0,0,0,0,0,0,0,0,0,0,0,0,0,0,0,0,0,0,0,0,0,0,0,0,0,0,0,0,0,0,0,0,0,0,0,0,0,0,0],"left_children":[1,3,5,7,9,11,13,15,17,19,21,23,25,27,29,31,33,35,37,39,41,43,45,47,49,51,53,55,57,59,61,-1,-1,-1,-1,-1,-1,-1,-1,-1,-1,-1,-1,-1,-1,-1,-1,-1,-1,-1,-1,-1,-1,-1,-1,-1,-1,-1,-1,-1,-1,-1,-1],"loss_changes":[2.4115186E2,1.1762952E2,1.1045703E2,6.417609E1,7.513727E1,8.405469E1,4.151539E1,4.284381E1,3.2040466E1,6.2295574E1,2.9599411E1,5.6812744E1,2.819458E1,3.287191E1,2.1248108E1,1.0150819E1,1.5899963E1,7.230683E0,2.7960938E1,8.390442E0,4.88691E1,2.0978455E1,1.14480095E1,4.2526733E1,1.0703125E1,2.223957E1,6.754677E0,1.7100613E1,2.0426838E1,7.0286384E0,1.4179794E1,0E0,0E0,0E0,0E0,0E0,0E0,0E0,0E0,0E0,0E0,0E0,0E0,0E0,0E0,0E0,0E0,0E0,0E0,0E0,0E0,0E0,0E0,0E0,0E0,0E0,0E0,0E0,0E0,0E0,0E0,0E0,0E0],"parents":[2147483647,0,0,1,1,2,2,3,3,4,4,5,5,6,6,7,7,8,8,9,9,10,10,11,11,12,12,13,13,14,14,15,15,16,16,17,17,18,18,19,19,20,20,21,21,22,22,23,23,24,24,25,25,26,26,27,27,28,28,29,29,30,30],"right_children":[2,4,6,8,10,12,14,16,18,20,22,24,26,28,30,32,34,36,38,40,42,44,46,48,50,52,54,56,58,60,62,-1,-1,-1,-1,-1,-1,-1,-1,-1,-1,-1,-1,-1,-1,-1,-1,-1,-1,-1,-1,-1,-1,-1,-1,-1,-1,-1,-1,-1,-1,-1,-1],"split_conditions":[2.5E0,4.365E2,1.5E0,4.45E1,6.650015E5,2.5285E3,7.435185E5,1.25E1,2.55E1,3.45E1,3.15E1,2.5E0,2.3295E3,2.95E1,2.35E1,8.431725E5,2.52892E5,2.65E1,3.15E1,2.5E0,3.45E1,2.85E1,2E0,3.3075E3,9.5E2,1.5E0,8.119E3,1.45E1,5.329375E5,9.8775E3,9.825E2,2.1981962E-2,-3.1600635E-2,1.3472453E-2,6.433647E-2,1.3132351E-2,-1.6370837E-2,3.8980853E-2,2.2855794E-2,-2.9079745E-2,1.563497E-2,2.2216719E-2,-2.7003116E-6,5.4872404E-3,2.8870547E-2,-3.6644902E-2,6.6967993E-3,3.563175E-2,5.115741E-2,4.9931217E-2,6.0538363E-2,1.1253372E-2,3.3428997E-2,2.5936324E-2,5.2294314E-2,-1.0199338E-2,1.5308305E-2,1.0456414E-2,4.344257E-2,3.0046318E-2,-2.6346937E-2,3.276981E-2,6.391392E-2],"split_indices":[10,25,17,8,3,25,3,9,23,23,22,12,0,23,23,3,3,22,22,20,22,23,11,2,0,12,4,18,3,1,27,0,0,0,0,0,0,0,0,0,0,0,0,0,0,0,0,0,0,0,0,0,0,0,0,0,0,0,0,0,0,0,0],"sum_hessian":[3.1622332E4,1.4663229E4,1.6959104E4,6.082034E3,8.581194E3,1.4437175E4,2.5219297E3,1.1649469E3,4.9170874E3,4.6384087E3,3.9427852E3,1.1979007E4,2.4581675E3,1.8349663E3,6.869633E2,1.7435529E2,9.9059155E2,3.337494E2,4.583338E3,5.812471E2,4.0571616E3,3.6752566E3,2.6752853E2,8.0636284E3,3.9153784E3,1.9314027E3,5.2676483E2,1.0824442E3,7.525221E2,9.122644E1,5.957369E2,1.26383514E2,4.7971775E1,6.647884E1,9.2411273E2,1.499145E2,1.838349E2,1.7342638E3,2.849074E3,5.363421E2,4.4905E1,1.7115339E3,2.345628E3,4.358052E2,3.2394514E3,9.222099E1,1.7530754E2,5.438366E3,2.6252625E3,1.9022031E3,2.0131753E3,1.2078427E3,7.235601E2,1.3336942E2,3.933954E2,6.3599915E2,4.46445E2,3.6387714E2,3.8864496E2,3.5041607E1,5.6184837E1,3.2173898E2,2.7399786E2],"tree_param":{"num_deleted":"0","num_feature":"28","num_nodes":"63","size_leaf_vector":"0"}},{"base_weights":[-5.089008E-1,-5.095147E-1,-2.1709977E-1,-5.0413793E-1,-5.375384E-1,-2.7096316E-1,5.01115E-1,-4.982264E-1,-5.324763E-1,-5.433591E-1,-4.887535E-1,-3.502372E-1,1.9943999E-1,2.498212E-2,7.4308187E-1,-5.091389E-1,-4.702565E-1,-5.256418E-1,-5.8843344E-1,-5.146234E-1,-5.568154E-1,-5.031005E-1,-1.9404061E-1,-9.8437026E-2,-5.2440345E-1,5.1839185E-1,-4.4994727E-1,-4.9273872E-1,-5.354355E-1,-4.3756935E-1,-4.9746606E-1,-5.276769E-1,-1.23634726E-1,-5.911447E-1,1.2287235E-1,-5.234555E-1,-2.3785923E-1,-5.576098E-1,6.0169145E-2,-3.3895832E-1,-5.2826446E-1,-4.0218028E-1,5.009072E-1,-4.3749228E-1,5.796062E-1,-6.0086197E-1,-1.010763E-1,6.4789295E-1,4.869872E-2],"default_left":[true,true,true,true,true,true,true,true,true,true,true,true,true,false,false,true,true,true,true,true,true,true,false,true,true,true,false,false,false,false,false,false,false,false,false,false,false,false,false,false,false,false,false,false,false,false,false,false,false],"id":21,"leaf_child_counts":[0,0,0,0,0,0,0,0,0,0,0,0,0,0,0,0,0,0,0,0,0,0,0,0,0,0,0,0,0,0,0,0,0,0,0,0,0,0,0,0,0,0,0,0,0,0,0,0,0],"left_children":[1,3,5,7,9,11,13,15,17,19,21,23,25,-1,-1,27,29,31,33,35,37,39,41,43,45,47,-1,-1,-1,-1,-1,-1,-1,-1,-1,-1,-1,-1,-1,-1,-1,-1,-1,-1,-1,-1,-1,-1,-1],"loss_changes":[3.859375E0,3.0610352E0,2.0031066E0,2.8461914E0,7.4108887E-1,1.7684791E0,4.0982974E-1,4.4553223E0,9.1101074E-1,9.346924E-1,1.5422745E0,1.6738334E0,1.7258801E0,0E0,0E0,4.5029297E0,3.633545E0,2.2688599E0,7.263031E-1,2.369934E0,1.0818481E0,1.3459473E0,3.0411534E0,4.2348747E0,6.845641E-1,2.9067123E-1,0E0,0E0,0E0,0E0,0E0,0E0,0E0,0E0,0E0,0E0,0E0,0E0,0E0,0E0,0E0,0E0,0E0,0E0,0E0,0E0,0E0,0E0,0E0],"parents":[2147483647,0,0,1,1,2,2,3,3,4,4,5,5,6,6,7,7,8,8,9,9,10,10,11,11,12,12,15,15,16,16,17,17,18,18,19,19,20,20,21,21,22,22,23,23,24,24,25,25],"right_children":[2,4,6,8,10,12,14,16,18,20,22,24,26,-1,-1,28,30,32,34,36,38,40,42,44,46,48,-1,-1,-1,-1,-1,-1,-1,-1,-1,-1,-1,-1,-1,-1,-1,-1,-1,-1,-1,-1,-1,-1,-1],"split_conditions":[9.01051E5,4.5E0,1.833E3,3.05E1,7.4783E5,7.5585E3,1.33605E4,1.55E1,3.1495E3,3.815E2,2.455E3,4.565E2,2.715E2,2.498212E-3,7.430819E-2,6.5E0,1.95E1,3.124E3,4.7795E3,4.45E1,4.7845E3,7.65289E5,3.95E1,1.25E1,1.03E3,8.865E2,-4.4994727E-2,-4.9273875E-2,-5.354355E-2,-4.3756936E-2,-4.9746606E-2,-5.276769E-2,-1.2363473E-2,-5.9114467E-2,1.2287236E-2,-5.234555E-2,-2.3785925E-2,-5.576098E-2,6.0169147E-3,-3.389583E-2,-5.2826446E-2,-4.021803E-2,5.009072E-2,-4.3749228E-2,5.796062E-2,-6.00862E-2,-1.010763E-2,6.4789295E-2,4.8698722E-3],"split_indices":[3,12,0,11,3,2,4,11,25,7,27,0,14,0,0,11,11,25,0,12,0,3,23,18,27,0,0,0,0,0,0,0,0,0,0,0,0,0,0,0,0,0,0,0,0,0,0,0,0],"sum_hessian":[2.216224E4,2.211497E4,4.7269344E1,1.8570865E4,3.5441067E3,4.4550922E1,2.7184236E0,1.5380923E4,3.1899424E3,3.1572646E3,3.86842E2,3.8344433E1,6.2064877E0,1.2877282E0,1.4306953E0,1.1051828E4,4.3290947E3,2.851997E3,3.379451E2,1.0194639E3,2.1378008E3,3.6820996E2,1.8632027E1,1.6317978E1,2.2026457E1,4.297471E0,1.9090165E0,6.8188867E3,4.232941E3,1.9743568E3,2.354738E3,2.8373213E3,1.467602E1,3.3683014E2,1.1149598E0,9.8707306E2,3.2390842E1,2.135148E3,2.652851E0,5.086863E1,3.1734134E2,1.4661983E1,3.9700434E0,1.1114799E1,5.203179E0,1.8301569E1,3.7248874E0,3.0712795E0,1.2261918E0],"tree_param":{"num_deleted":"0","num_feature":"28","num_nodes":"49","size_leaf_vector":"0"}},{"base_weights":[8.004411E-2,1.1678038E-1,-1.1228887E-1,1.8700473E-3,1.7891501E-1,-1.4174026E-1,2.0079258E-1,-4.597281E-2,1.18441775E-1,7.362885E-2,2.431006E-1,-1.8271258E-1,1.9731767E-2,3.5233012E-1,8.83842E-2,-2.5037375E-1,-1.9474624E-2,1.895063E-1,-9.651528E-2,5.6061734E-2,5.140443E-1,4.7057605E-1,2.151611E-1,-1.11512356E-1,-2.5740433E-1,1.9608735E-1,-5.60337E-2,-6.090317E-1,3.7438217E-1,3.88251E-1,1.8330268E-3,3.596747E-1,-2.9289943E-1,5.2618407E-2,-1.1785804E-1,3.4736313E-2,2.5934857E-1,-1.2609053E-1,4.1816017E-1,2.9686084E-1,3.2325808E-2,6.261851E-1,-1.3391304E-1,5.5205655E-1,3.344802E-1,2.909565E-1,1.2844464E-1,8.565206E-1,-1.17852606E-1,-2.8572094E-1,-5.3879645E-2,-2.877715E-1,2.442802E-1,-9.111776E-2,2.868267E-1,4.5076284E-1,4.025923E-2,6.308015E-1,8.163422E-3,-6.0300216E-2,4.4378802E-1],"default_left":[true,true,true,true,false,true,true,true,true,true,false,true,true,true,false,true,true,false,true,false,true,true,true,false,false,false,true,false,true,true,true,false,false,false,false,false,false,false,false,false,false,false,false,false,false,false,false,false,false,false,false,false,false,false,false,false,false,false,false,false,false],"id":22,"leaf_child_counts":[0,0,0,0,0,0,0,0,0,0,0,0,0,0,0,0,0,0,0,0,0,0,0,0,0,0,0,0,0,0,0,0,0,0,0,0,0,0,0,0,0,0,0,0,0,0,0,0,0,0,0,0,0,0,0,0,0,0,0,0,0],"left_children":[1,3,5,7,9,11,13,15,17,19,21,23,25,27,29,31,33,35,37,39,41,43,45,47,49,51,53,-1,55,57,59,-1,-1,-1,-1,-1,-1,-1,-1,-1,-1,-1,-1,-1,-1,-1,-1,-1,-1,-1,-1,-1,-1,-1,-1,-1,-1,-1,-1,-1,-1],"loss_changes":[2.0785939E2,1.7635226E2,4.353272E1,4.835585E1,1.0831818E2,2.8538132E1,6.886118E0,3.3291164E1,3.8558964E1,4.6957348E1,6.3194214E1,1.8266647E1,1.1686529E1,3.8872662E0,6.084857E0,1.8405346E1,3.8612297E1,2.0490807E1,9.604618E0,3.3376457E1,1.7001526E1,1.1886658E1,5.827249E1,1.0921749E1,9.656189E0,6.198701E0,7.3878E0,0E0,4.3038883E0,4.8361506E0,5.0509324E0,0E0,0E0,0E0,0E0,0E0,0E0,0E0,0E0,0E0,0E0,0E0,0E0,0E0,0E0,0E0,0E0,0E0,0E0,0E0,0E0,0E0,0E0,0E0,0E0,0E0,0E0,0E0,0E0,0E0,0E0],"parents":[2147483647,0,0,1,1,2,2,3,3,4,4,5,5,6,6,7,7,8,8,9,9,10,10,11,11,12,12,13,13,14,14,15,15,16,16,17,17,18,18,19,19,20,20,21,21,22,22,23,23,24,24,25,25,26,26,28,28,29,29,30,30],"right_children":[2,4,6,8,10,12,14,16,18,20,22,24,26,28,30,32,34,36,38,40,42,44,46,48,50,52,54,-1,56,58,60,-1,-1,-1,-1,-1,-1,-1,-1,-1,-1,-1,-1,-1,-1,-1,-1,-1,-1,-1,-1,-1,-1,-1,-1,-1,-1,-1,-1,-1,-1],"split_conditions":[2.5E0,4.365E2,1.5E0,1.5E0,3.15E1,2.542E3,5.445855E5,3.45E1,1.373E3,1.5E0,3.25E1,9.5E2,4.655E2,6.65E1,2.45E1,2.52892E5,2.5E0,2.85E1,3.45E1,2.65E1,7.50389E5,6.727475E5,1.45E1,2.15E1,3.95E1,2.65E1,6.58E3,-6.090317E-2,2.5965E3,1.85E1,1.7585E3,3.596747E-2,-2.9289944E-2,5.2618408E-3,-1.1785804E-2,3.4736313E-3,2.5934858E-2,-1.26090525E-2,4.181602E-2,2.9686084E-2,3.2325808E-3,6.261852E-2,-1.3391304E-2,5.5205654E-2,3.344802E-2,2.909565E-2,1.2844465E-2,8.565206E-2,-1.178526E-2,-2.8572096E-2,-5.3879647E-3,-2.877715E-2,2.4428021E-2,-9.111776E-3,2.868267E-2,4.5076285E-2,4.025923E-3,6.3080154E-2,8.1634225E-4,-6.0300217E-3,4.4378802E-2],"split_indices":[12,25,19,20,22,25,3,8,27,19,23,0,0,25,23,3,10,22,22,23,3,3,11,23,22,22,24,0,27,19,15,0,0,0,0,0,0,0,0,0,0,0,0,0,0,0,0,0,0,0,0,0,0,0,0,0,0,0,0,0,0],"sum_hessian":[2.9415664E4,2.4698549E4,4.717116E3,8.668415E3,1.6030133E4,4.3120327E3,4.0508322E2,6.14643E3,2.5219854E3,6.072052E3,9.958081E3,3.4392239E3,8.72809E2,1.7160646E2,2.3347678E2,7.044E2,5.4420303E3,1.8954652E3,6.2652E2,5.8402266E3,2.3182535E2,1.0875681E3,8.870514E3,1.7620425E3,1.6771814E3,2.6181256E2,6.1099646E2,3.251218E0,1.6835524E2,5.151414E1,1.8196263E2,4.5416958E1,6.589831E2,3.1409106E3,2.3011196E3,5.8985266E2,1.3056125E3,5.931882E2,3.333188E1,5.229933E2,5.317233E3,1.9765172E2,3.4173634E1,6.783713E2,4.0919693E2,4.732056E3,4.138457E3,1.0593083E1,1.7514493E3,1.4719795E3,2.0520198E2,2.3264498E1,2.3854808E2,5.549446E2,5.6051865E1,1.3674596E2,3.1609282E1,3.1043993E1,2.0470146E1,1.6029128E2,2.1671352E1],"tree_param":{"num_deleted":"0","num_feature":"28","num_nodes":"61","size_leaf_vector":"0"}},{"base_weights":[2.8123507E-1,2.0822634E-1,3.7034893E-1,2.829896E-1,1.2879625E-1,4.0477756E-1,2.0013301E-1,3.292239E-1,1.6962644E-1,1.5953602E-1,-9.450285E-2,4.3244237E-1,2.3812762E-1,1.4832653E-1,4.1894087E-1,4.517337E-1,2.738246E-1,1.16216674E-1,4.135296E-1,2.4215858E-1,8.032107E-2,-1.9354329E-1,5.9604052E-2,3.8724476E-1,5.191435E-1,1.7833923E-1,5.128154E-1,1.1420555E-1,4.496808E-1,4.303504E-1,-4.5791453E-1,3.6393347E-1,5.924928E-1,3.58511E-1,1.9665378E-1,9.372902E-2,6.053926E-1,4.37776E-1,-3.6132398E-1,2.273487E-1,6.4704186E-1,-6.1562103E-3,2.050704E-1,-4.4350067E-1,-1.3294442E-1,-1.922875E-2,3.920525E-1,3.4083572E-1,4.821358E-1,5.442356E-1,3.5650924E-1,6.266558E-2,2.8691813E-1,2.7839646E-1,6.278484E-1,1.5066956E-1,-1.997038E-1,4.922874E-1,-2.5833312E-1,8.4215306E-2,4.610622E-1,2.7668563E-1,-7.340481E-1],"default_left":[true,true,true,true,true,true,true,true,true,false,true,true,true,true,true,true,false,true,true,true,true,true,true,true,false,true,true,true,true,false,true,false,false,false,false,false,false,false,false,false,false,false,false,false,false,false,false,false,false,false,false,false,false,false,false,false,false,false,false,false,false,false,false],"id":23,"leaf_child_counts":[0,0,0,0,0,0,0,0,0,0,0,0,0,0,0,0,0,0,0,0,0,0,0,0,0,0,0,0,0,0,0,0,0,0,0,0,0,0,0,0,0,0,0,0,0,0,0,0,0,0,0,0,0,0,0,0,0,0,0,0,0,0,0],"left_children":[1,3,5,7,9,11,13,15,17,19,21,23,25,27,29,31,33,35,37,39,41,43,45,47,49,51,53,55,57,59,61,-1,-1,-1,-1,-1,-1,-1,-1,-1,-1,-1,-1,-1,-1,-1,-1,-1,-1,-1,-1,-1,-1,-1,-1,-1,-1,-1,-1,-1,-1,-1,-1],"loss_changes":[2.0637671E2,1.03557556E2,8.365552E1,4.7039307E1,5.808693E1,5.468579E1,2.7209976E1,4.31864E1,3.388797E1,4.8654022E1,1.5645872E1,3.9733276E1,2.7731789E1,1.9966991E1,4.7994537E0,2.4323303E1,2.8664062E1,2.3467642E1,8.943016E0,2.1677017E1,4.0976135E1,9.390085E0,1.05306225E1,2.9352722E1,1.4044434E1,1.7475815E1,7.9769974E0,2.0063164E1,6.09013E0,4.7941666E0,1.5000008E0,0E0,0E0,0E0,0E0,0E0,0E0,0E0,0E0,0E0,0E0,0E0,0E0,0E0,0E0,0E0,0E0,0E0,0E0,0E0,0E0,0E0,0E0,0E0,0E0,0E0,0E0,0E0,0E0,0E0,0E0,0E0,0E0],"parents":[2147483647,0,0,1,1,2,2,3,3,4,4,5,5,6,6,7,7,8,8,9,9,10,10,11,11,12,12,13,13,14,14,15,15,16,16,17,17,18,18,19,19,20,20,21,21,22,22,23,23,24,24,25,25,26,26,27,27,28,28,29,29,30,30],"right_children":[2,4,6,8,10,12,14,16,18,20,22,24,26,28,30,32,34,36,38,40,42,44,46,48,50,52,54,56,58,60,62,-1,-1,-1,-1,-1,-1,-1,-1,-1,-1,-1,-1,-1,-1,-1,-1,-1,-1,-1,-1,-1,-1,-1,-1,-1,-1,-1,-1,-1,-1,-1,-1],"split_conditions":[4.5E0,7.415E2,2.5475E3,1.5E0,1.5E0,1.5E0,2.3475E3,3.15E1,1.7265E3,3.45E1,1.3085E3,1.5E0,3.35E1,6.94325E5,2.7425E3,2.7E1,3.35E1,3.55E1,3.55E1,5.35E1,6.497985E5,1.5E0,7.50283E5,3.3035E3,3.95E1,8.035E2,5.400115E5,1.05E1,4.063E3,3.15E1,5.685935E5,3.6393348E-2,5.9249282E-2,3.5851102E-2,1.966538E-2,9.372902E-3,6.0539257E-2,4.37776E-2,-3.61324E-2,2.2734871E-2,6.470419E-2,-6.1562104E-4,2.0507041E-2,-4.435007E-2,-1.3294443E-2,-1.9228751E-3,3.920525E-2,3.408357E-2,4.8213582E-2,5.442356E-2,3.5650924E-2,6.266558E-3,2.8691813E-2,2.7839646E-2,6.278484E-2,1.5066956E-2,-1.997038E-2,4.922874E-2,-2.5833312E-2,8.421531E-3,4.610622E-2,2.7668564E-2,-7.340481E-2],"split_indices":[10,25,25,20,17,17,0,25,27,22,27,12,23,3,7,25,22,23,22,11,3,11,3,2,22,27,3,17,26,23,3,0,0,0,0,0,0,0,0,0,0,0,0,0,0,0,0,0,0,0,0,0,0,0,0,0,0,0,0,0,0,0,0],"sum_hessian":[3.1731389E4,1.7443615E4,1.4287773E4,8.984463E3,8.459152E3,1.1882906E4,2.4048677E3,6.3803726E3,2.6040906E3,7.4358105E3,1.0233417E3,1.0189757E4,1.693149E3,1.9458358E3,4.590318E2,1.9845626E3,4.39581E3,2.137499E3,4.6659177E2,3.6386147E3,3.7971956E3,6.2281744E2,4.005242E2,6.7016377E3,3.4881194E3,1.3918492E3,3.0129984E2,1.7491648E3,1.9667104E2,4.5363834E2,5.393465E0,1.2244082E3,7.601544E2,2.0941108E3,2.301699E3,2.0446948E3,9.280402E1,4.528562E2,1.3735564E1,3.511724E3,1.26890785E2,2.2431653E3,1.5540304E3,1.2029744E2,5.0252002E2,3.2451483E2,7.600937E1,4.503615E3,2.1980227E3,3.019854E3,4.682652E2,6.746711E2,7.1717816E2,1.0030806E2,2.0099178E2,1.5675918E3,1.8157294E2,1.8579503E2,1.087601E1,3.727501E1,4.1636334E2,1.4729545E0,3.9205103E0],"tree_param":{"num_deleted":"0","num_feature":"28","num_nodes":"63","size_leaf_vector":"0"}},{"base_weights":[-4.9403343E-1,-4.9465674E-1,-2.0261446E-1,-4.891226E-1,-5.236308E-1,-3.4024793E-1,8.738043E-2,-4.829887E-1,-5.18571E-1,-5.294401E-1,-4.7138786E-1,2.7598125E-1,-4.544801E-1,3.46965E-1,-5.226161E-1,-4.940593E-1,-4.5474422E-1,-5.114348E-1,-5.77175E-1,-5.011902E-1,-5.4271245E-1,5.65262E-1,-4.81685E-1,5.408617E-1,-3.5152134E-1,-5.078099E-1,1.4221986E-1,-1.1018463E-1,7.3162585E-1,-4.7727168E-1,-5.2108836E-1,-4.2148274E-1,-4.8256245E-1,-5.135129E-1,-1.1367513E-1,-5.854198E-1,-2.4410081E-1,-5.102135E-1,-2.2185898E-1,-5.43524E-1,6.513958E-2,-4.185332E-3,9.7141594E-1,-5.1592684E-1,-2.9839233E-1,-5.208029E-2,8.89005E-1,-6.110166E-1,2.6950108E-2,-4.939743E-1,5.121728E-1,9.9445087E-1,-3.3047464E-1],"default_left":[true,true,true,true,true,false,true,true,true,true,true,true,true,true,false,true,true,true,true,true,true,true,true,true,false,true,false,true,true,false,false,false,false,false,false,false,false,false,false,false,false,false,false,false,false,false,false,false,false,false,false,false,false],"id":24,"leaf_child_counts":[0,0,0,0,0,0,0,0,0,0,0,0,0,0,0,0,0,0,0,0,0,0,0,0,0,0,0,0,0,0,0,0,0,0,0,0,0,0,0,0,0,0,0,0,0,0,0,0,0,0,0,0,0],"left_children":[1,3,5,7,9,11,13,15,17,19,21,23,25,27,-1,29,31,33,35,37,39,41,43,45,-1,47,-1,49,51,-1,-1,-1,-1,-1,-1,-1,-1,-1,-1,-1,-1,-1,-1,-1,-1,-1,-1,-1,-1,-1,-1,-1,-1],"loss_changes":[3.762207E0,3.1455078E0,1.9086089E0,2.9702148E0,7.788086E-1,2.3869967E0,2.706417E0,4.393799E0,9.844971E-1,8.682251E-1,3.9890594E0,1.128634E0,9.467244E-1,2.153386E0,0E0,4.560791E0,3.6565552E0,2.2036133E0,7.4788666E-1,2.3698883E0,1.0501709E0,9.025295E-1,2.013298E0,9.472256E-1,0E0,1.4208198E0,0E0,1.7470977E0,2.152043E0,0E0,0E0,0E0,0E0,0E0,0E0,0E0,0E0,0E0,0E0,0E0,0E0,0E0,0E0,0E0,0E0,0E0,0E0,0E0,0E0,0E0,0E0,0E0,0E0],"parents":[2147483647,0,0,1,1,2,2,3,3,4,4,5,5,6,6,7,7,8,8,9,9,10,10,11,11,12,12,13,13,15,15,16,16,17,17,18,18,19,19,20,20,21,21,22,22,23,23,25,25,27,27,28,28],"right_children":[2,4,6,8,10,12,14,16,18,20,22,24,26,28,-1,30,32,34,36,38,40,42,44,46,-1,48,-1,50,52,-1,-1,-1,-1,-1,-1,-1,-1,-1,-1,-1,-1,-1,-1,-1,-1,-1,-1,-1,-1,-1,-1,-1,-1],"split_conditions":[9.01051E5,4.5E0,7.1525E3,3.05E1,7.506565E5,2.95E1,1.15E1,1.55E1,3.1495E3,3.815E2,7.51021E5,7.4265E3,9.099255E5,9.041625E5,-5.226161E-2,6.5E0,1.95E1,3.124E3,5.65E1,4.45E1,4.7845E3,6.55E2,1.25E1,3.2395E3,-3.5152134E-2,2.262E3,1.4221986E-2,1.5E0,9.0911E5,-4.7727168E-2,-5.2108835E-2,-4.2148273E-2,-4.8256245E-2,-5.135129E-2,-1.1367514E-2,-5.854198E-2,-2.4410082E-2,-5.102135E-2,-2.2185897E-2,-5.4352403E-2,6.513958E-3,-4.185332E-4,9.714159E-2,-5.1592685E-2,-2.9839233E-2,-5.208029E-3,8.89005E-2,-6.1101656E-2,2.6950107E-3,-4.939743E-2,5.1217284E-2,9.944509E-2,-3.3047464E-2],"split_indices":[3,12,2,11,3,22,16,11,25,7,3,6,3,3,0,11,11,25,18,12,0,0,18,6,0,8,0,21,3,0,0,0,0,0,0,0,0,0,0,0,0,0,0,0,0,0,0,0,0,0,0,0,0],"sum_hessian":[2.1261479E4,2.1215404E4,4.607433E1,1.7828066E4,3.3873389E3,3.1127653E1,1.4946678E1,1.476915E4,3.0589163E3,3.0401465E3,3.4719235E2,4.646421E0,2.6481232E1,1.0787324E1,4.159354E0,1.0598504E4,4.170646E3,2.735536E3,3.2338025E2,9.8415454E2,2.055992E3,2.8846908E0,3.4430765E2,3.3643422E0,1.2820787E0,2.4445406E1,2.0358253E0,5.2552657E0,5.5320582E0,6.549378E3,4.0491262E3,1.9068419E3,2.2638042E3,2.7210288E3,1.4507175E1,3.148295E2,8.550753E0,9.525571E2,3.159738E1,2.0533562E3,2.635778E0,1.6129508E0,1.2717398E0,2.8858154E2,5.572613E1,1.5591956E0,1.8051466E0,2.0371233E1,4.0741735E0,3.3782701E0,1.8769954E0,4.4857254E0,1.0463333E0],"tree_param":{"num_deleted":"0","num_feature":"28","num_nodes":"53","size_leaf_vector":"0"}},{"base_weights":[7.695322E-2,1.5802747E-1,1.5423342E-3,7.8359835E-2,2.4141262E-1,-8.303257E-2,9.0273015E-2,-1.5194853E-1,1.1193944E-1,3.348791E-1,1.6129735E-1,-1.1470692E-1,8.904204E-2,1.6911072E-1,-1.2122182E-2,3.1170005E-1,-2.5711048E-1,8.424096E-2,3.7289837E-1,4.144302E-1,2.3161948E-1,1.3381548E-1,5.000135E-1,-6.118844E-2,-2.0922472E-1,5.469482E-1,4.2406484E-2,6.170698E-2,2.683788E-1,-4.5629967E-2,1.9790511E-1,1.2989192E-1,6.84468E-1,-2.8971016E-1,8.4854084E-1,-1.19592175E-2,1.4304177E-1,5.404178E-1,2.0707844E-1,2.8023097E-1,5.308166E-1,-3.3283517E-1,2.5582153E-1,3.372747E-1,1.0463103E-1,6.673668E-1,2.7186668E-1,-1.847292E-1,9.730121E-3,-2.2087125E-1,1.1831422E-1,5.865685E-1,-4.6027678E-1,1.5394093E-1,-1.1019253E-1,1.2175404E-1,-1.2858911E-1,2.3543231E-1,5.992523E-1,-8.270431E-2,1.2312707E-1,2.5067303E-1,-2.1747272E-1],"default_left":[true,true,true,true,true,true,true,true,true,true,true,true,false,false,true,true,true,false,true,false,true,false,true,false,true,true,true,true,true,true,true,false,false,false,false,false,false,false,false,false,false,false,false,false,false,false,false,false,false,false,false,false,false,false,false,false,false,false,false,false,false,false,false],"id":25,"leaf_child_counts":[0,0,0,0,0,0,0,0,0,0,0,0,0,0,0,0,0,0,0,0,0,0,0,0,0,0,0,0,0,0,0,0,0,0,0,0,0,0,0,0,0,0,0,0,0,0,0,0,0,0,0,0,0,0,0,0,0,0,0,0,0,0,0],"left_children":[1,3,5,7,9,11,13,15,17,19,21,23,25,27,29,31,33,35,37,39,41,43,45,47,49,51,53,55,57,59,61,-1,-1,-1,-1,-1,-1,-1,-1,-1,-1,-1,-1,-1,-1,-1,-1,-1,-1,-1,-1,-1,-1,-1,-1,-1,-1,-1,-1,-1,-1,-1,-1],"loss_changes":[1.7963608E2,9.404187E1,1.1425091E2,5.6027893E1,5.1746277E1,4.2494728E1,5.9979267E1,4.5036438E1,4.5661095E1,2.6123444E1,3.462436E1,3.328945E1,2.5865713E1,4.473945E1,2.276087E1,1.149449E1,2.735476E1,3.233603E1,1.6729683E1,2.799112E1,1.9090683E1,2.0441357E1,1.0483276E1,3.6841652E1,9.103844E0,4.738449E0,1.8762072E1,2.3069956E1,2.3636734E1,1.745921E1,9.8083515E0,0E0,0E0,0E0,0E0,0E0,0E0,0E0,0E0,0E0,0E0,0E0,0E0,0E0,0E0,0E0,0E0,0E0,0E0,0E0,0E0,0E0,0E0,0E0,0E0,0E0,0E0,0E0,0E0,0E0,0E0,0E0,0E0],"parents":[2147483647,0,0,1,1,2,2,3,3,4,4,5,5,6,6,7,7,8,8,9,9,10,10,11,11,12,12,13,13,14,14,15,15,16,16,17,17,18,18,19,19,20,20,21,21,22,22,23,23,24,24,25,25,26,26,27,27,28,28,29,29,30,30],"right_children":[2,4,6,8,10,12,14,16,18,20,22,24,26,28,30,32,34,36,38,40,42,44,46,48,50,52,54,56,58,60,62,-1,-1,-1,-1,-1,-1,-1,-1,-1,-1,-1,-1,-1,-1,-1,-1,-1,-1,-1,-1,-1,-1,-1,-1,-1,-1,-1,-1,-1,-1,-1,-1],"split_conditions":[2.5E0,7.505E2,1.0535E3,3.5E1,6.057235E5,1.5E0,1.0165E3,1.35E1,1.5E0,1.45E1,3.25E1,1.1975E3,2.35E1,3.25E1,1.5E0,5.7E1,1.45E1,3.15E1,7.45196E5,3.65E1,2.45E2,2.85E1,1.1E1,2.85E1,5.7375E3,3.2E1,7.31661E5,6.961155E5,5.05E1,1.5E0,7.505965E5,1.2989192E-2,6.84468E-2,-2.8971016E-2,8.485409E-2,-1.1959218E-3,1.4304178E-2,5.404178E-2,2.0707844E-2,2.8023098E-2,5.308166E-2,-3.3283517E-2,2.5582153E-2,3.372747E-2,1.0463103E-2,6.673668E-2,2.7186668E-2,-1.8472921E-2,9.730121E-4,-2.2087125E-2,1.1831422E-2,5.865685E-2,-4.602768E-2,1.53940935E-2,-1.1019253E-2,1.21754045E-2,-1.2858911E-2,2.3543231E-2,5.992523E-2,-8.270431E-3,1.23127075E-2,2.5067303E-2,-2.1747272E-2],"split_indices":[10,25,25,8,3,17,0,9,17,11,22,0,23,22,17,15,9,22,3,22,2,23,11,22,2,12,3,3,11,5,3,0,0,0,0,0,0,0,0,0,0,0,0,0,0,0,0,0,0,0,0,0,0,0,0,0,0,0,0,0,0,0,0],"sum_hessian":[2.9380717E4,1.4158171E4,1.5222546E4,7.241478E3,6.9166934E3,7.7938203E3,7.4287256E3,9.2102563E2,6.3204526E3,3.1908772E3,3.725816E3,6.582492E3,1.211328E3,4.196805E3,3.2319207E3,1.6991655E2,7.511091E2,5.7151616E3,6.0529095E2,1.8006471E3,1.3902301E3,